0 1 2 3 4 5 6 7 8 9 10 11 12 13 14 15 16 17 18 19 20 21 22 23 24 25 26 27 28 29 30 31 32 33 34 35 36 37 38 39 40 41 42 43 44 45 46 47 48 49 50 51 52 53 54 55 56 57 58 59 60 61 62 63 64 65 66 67 68 69 70 71 72 73 74 75 76 77 78 79 80 81 82 83 84 85 86 87 88 89 90 91 92 93 94 95 96 97 98 99
， 0.261379 -0.231541 0.20605900000000002 -0.065022 0.14492 0.042779000000000005 -0.444588 0.419203 -0.325635 0.414501 0.071675 0.061123000000000004 0.420018 -0.344921 -0.08213200000000001 0.8061470000000001 0.22350100000000003 -0.077794 -0.584437 0.38705900000000004 -0.031564999999999996 -0.399873 -0.23183800000000002 0.380824 -0.066852 -0.069025 0.161578 -0.428746 0.074376 0.574589 -0.45219799999999993 0.240089 0.017047 0.17622000000000002 -0.801733 -0.255382 -0.22179000000000001 0.496485 0.32054499999999997 0.9702360000000001 -0.075378 -0.22566399999999998 -0.440666 0.024163999999999998 -0.243892 -0.36909899999999995 -0.453798 -0.96998 -0.351222 -0.121822 0.25417 0.026683999999999996 -0.47427700000000006 0.521976 -0.328411 0.050977 -0.174778 -0.401221 -0.000638 -0.22785500000000003 -0.081997 -0.178306 -0.018409000000000002 0.041022 0.082313 -0.8322209999999999 -0.370517 0.28915100000000005 -0.18052200000000002 0.421464 -0.8262870000000001 0.237469 -0.42426499999999995 -0.155756 -0.133155 -0.565803 -0.55245 0.019487 0.489338 0.11123599999999999 0.178083 -0.47851099999999996 0.115059 -0.370721 -0.057365 0.108504 -0.08985399999999999 0.039358 0.211171 -0.165179 -0.301371 0.398946 -0.475992 -0.798574 0.5529029999999999 -0.252804 -0.45833599999999997 0.193375 -0.160356
的 -0.464081 0.062943 0.387407 0.244946 -0.37502800000000003 -0.081303 0.22860100000000003 0.511578 0.07199 -0.402753 0.085151 -0.41939099999999996 -0.15079800000000002 -0.02329 -0.031002 0.8780540000000001 -0.23923000000000003 -0.052280999999999994 0.000583 -0.456516 -0.645334 0.109921 -0.214709 -0.677729 0.266604 0.7948069999999999 0.544999 -0.71709 -0.128631 0.45625699999999997 -0.182161 0.8988379999999999 -0.42313900000000004 0.813484 -0.000686 0.44155500000000003 -0.022198 -0.029097 -0.22277399999999997 0.170272 0.0037840000000000005 -0.148179 0.47718299999999997 -0.0005809999999999999 -0.214875 0.220112 -0.29236 -0.443007 0.184059 0.028373000000000002 -0.681801 0.634197 -1.001102 -0.069871 -0.690625 0.240094 0.178832 -0.275136 0.137975 0.20369500000000001 -0.436783 -0.212267 -0.16939200000000001 0.9071549999999999 0.44483900000000004 0.186015 -0.302646 0.7699600000000001 -0.46466899999999994 0.328024 0.138535 0.6438699999999999 0.25254499999999996 -0.41809300000000005 0.26713200000000004 -0.27768699999999996 0.037919 0.391683 0.5937560000000001 -0.742804 -0.25471 0.379506 0.01886 -0.30628299999999997 0.20532899999999998 -0.126916 0.659749 -0.017887 0.49428900000000003 -0.551471 -0.55889 0.40539000000000003 0.350246 -0.252317 -0.10987999999999999 0.6555979999999999 -0.072257 0.441125 0.344471
。 0.23366599999999998 0.20877300000000001 -0.22048600000000002 -0.09604800000000001 0.442337 0.139149 -0.137321 0.470679 -0.664062 0.420313 -0.30494499999999997 0.09626 0.657678 -0.402464 -0.357168 0.425464 0.377021 0.288711 -0.212402 0.517472 0.588391 -0.669934 -0.322816 0.181006 -0.27568899999999996 -0.09188400000000001 0.4023 -0.492486 0.632199 0.388846 -0.546134 0.09400599999999999 0.089632 0.079012 -0.602867 0.101779 0.084459 0.382236 0.163236 0.8915569999999999 -0.042073 -0.094386 -0.27537399999999995 0.258366 -0.05734500000000001 0.624186 -0.69135 -0.571392 -0.403396 -0.25944 0.335588 -0.33502600000000005 -0.5419350000000001 0.496737 0.263995 0.387305 -0.513674 -0.877821 -0.141039 -0.66166 0.270039 0.035649 0.159627 0.18848299999999998 0.041321 -0.851316 -0.13109300000000002 0.496483 -0.266322 0.486063 -0.647142 0.184273 -0.342091 -0.371788 0.003072 -0.635206 -0.682235 0.082313 -0.048677 -0.07839 0.37390100000000004 -0.517356 0.099729 -0.145393 0.28458 -0.294236 0.197501 -0.346873 -0.1463 -0.578625 -0.354079 -0.346303 -0.812078 -0.497255 -0.006266 -0.383222 0.29732 0.8628299999999999 -0.039475
、 0.45738599999999996 0.29273699999999997 0.450074 0.638031 -0.23958000000000002 0.069604 -0.020494 -0.290058 -0.267909 0.000828 -0.34546 -0.537367 0.473282 -0.665629 0.039245999999999996 0.539611 0.34683600000000003 -0.705037 -0.07182100000000001 -0.236166 -0.09059 -0.66254 -0.506606 0.30251100000000003 0.015172999999999999 -0.267805 0.42368199999999995 -0.27107600000000004 -0.43624700000000005 -0.150101 0.004536 -0.055998 -0.21774699999999997 0.397825 -0.43437 0.574234 -0.5096729999999999 0.277831 0.143341 0.623028 -0.43463599999999997 0.086738 -0.308666 -0.258365 -0.5897979999999999 0.393871 -0.87005 0.09502999999999999 0.181448 -0.052278 0.312786 -0.459215 -0.418224 0.00978 0.532324 0.421716 -0.340777 -1.115491 0.229 0.132774 -0.389264 -0.580527 -0.20843699999999998 0.46273800000000004 0.08404400000000001 -0.50267 -0.600612 0.413329 -0.398608 0.31293200000000004 0.05954400000000001 -0.436013 -0.220734 0.05280700000000001 -0.812625 0.11363499999999999 -0.577696 0.140543 0.093548 0.187669 0.054036 0.11311500000000001 0.595618 0.215398 0.420408 0.520354 -0.18371400000000002 -0.47747399999999995 0.504342 -1.125038 0.112692 -0.302977 0.041835000000000004 -0.219744 -0.22938000000000003 0.32116500000000003 -0.235656 -0.03734 0.23139400000000002
和 0.6282 0.228465 0.144336 0.706781 -0.192321 0.5623859999999999 -0.448258 0.377931 -0.734306 -0.349645 -0.418009 -0.35347399999999995 0.426367 -0.334961 -0.08502799999999999 0.22013400000000002 0.131966 -0.470041 0.045344 -0.578041 0.199936 -0.505792 -0.413441 0.767095 -0.42485100000000003 0.07912899999999999 -0.173274 -0.285652 -0.020427 0.202351 -0.257893 0.6126739999999999 -0.28989000000000004 0.042664 -0.10661300000000001 0.31858000000000003 0.37859499999999996 0.05410499999999999 0.148798 0.344445 -0.23974099999999998 0.284727 0.156133 -0.187695 -0.633116 -0.256782 -0.95909 -0.037535 0.168125 0.162131 0.21669499999999997 0.203506 -0.096152 -0.025449 0.313855 0.12604300000000002 0.484944 -0.30331199999999997 0.418125 0.12983699999999998 -0.231095 -0.364363 -0.262892 0.383761 0.30532 -0.441173 -0.517176 0.24076399999999998 0.559431 -0.074165 0.003785 -0.339753 -0.15604300000000002 -0.067957 0.035621 0.386247 -0.059685 -0.45405200000000007 -0.374724 0.063176 -0.15340499999999999 -0.22873400000000002 -0.056628 0.030267000000000002 0.295202 0.158797 -0.006768000000000001 -0.471189 0.045537 -0.941332 0.476047 -0.10710499999999999 -0.148168 -0.536025 -0.195804 0.05924600000000001 -0.26065 -0.07097300000000001 -0.093442
了 -0.325533 -1.135769 -0.107503 0.29281399999999996 0.117022 -0.006352 -0.37800100000000003 0.72516 0.196418 0.299593 -0.248258 -0.552082 0.087142 0.058474 -0.7580279999999999 0.255037 -0.28532199999999996 -0.514333 -0.015585 -0.546151 -0.469606 -0.311136 0.28012 0.164482 -0.75465 0.22549899999999998 -0.30545700000000003 -0.196853 0.254261 -0.80861 -0.351431 0.63068 -0.80077 0.050408999999999995 -0.357433 0.32575 -0.44703999999999994 0.598983 -0.251218 0.583407 -0.298567 0.40255799999999997 0.08758400000000001 0.949509 0.054470000000000005 0.035519 -0.298975 -0.575289 0.07308200000000001 0.649321 0.259486 0.8356969999999999 -0.252909 -0.363799 -0.523537 0.487129 -0.416595 -0.26115700000000003 0.015806999999999998 -0.8268780000000001 0.140497 0.226541 -0.06535 -0.133744 0.077968 -0.155712 -0.6571060000000001 -0.154398 0.084756 -0.903272 0.37621 -0.345348 0.010320000000000001 0.332095 -0.46016899999999994 -0.36604699999999996 0.638917 0.148328 0.371267 -0.8974209999999999 0.241538 -0.11742000000000001 -0.296243 -0.204747 0.22368200000000002 0.071409 0.126658 0.082451 -0.248481 -1.224482 0.460453 -0.21577600000000002 0.012190000000000001 -0.330727 -0.35759 -0.16625299999999998 0.222768 0.633494 -0.087226
在 0.665451 -0.5220130000000001 0.247854 0.836684 0.18440399999999998 0.577336 -0.726903 0.010367 -0.630778 0.42660600000000004 -0.8197700000000001 0.41133100000000006 0.38159 -0.614301 -0.142441 0.684607 -0.442449 -0.08638 -0.351968 -0.358854 -0.252678 -0.191048 0.337541 0.6545489999999999 -0.551447 -0.597114 0.303967 -0.594006 0.465154 -0.5450229999999999 0.232737 0.141654 0.047209 0.461091 0.120804 0.505957 -0.050786000000000005 0.96601 0.251758 -0.06819 -0.13125799999999999 0.087521 -0.047973 0.294594 0.070313 -0.12775899999999998 0.22556199999999998 -0.064112 0.213973 -0.409429 0.567693 0.610169 0.030327 0.069725 -0.336779 0.128005 0.620829 -0.120696 0.512748 0.465345 -0.133428 0.10668299999999999 0.212562 0.244666 -0.38497 0.21205700000000002 -1.247095 0.270567 -0.601175 -0.44562799999999997 -0.45413000000000003 0.023288999999999997 0.11457 -0.365979 -0.550996 -0.016996999999999998 0.252803 -0.015373 0.264997 0.23383099999999998 -0.267532 -0.23211199999999999 -0.36541399999999996 -0.060969 0.072988 -0.794114 0.24870599999999998 -0.083175 -0.217873 -0.45875299999999997 -0.31553400000000004 0.141421 -0.277848 0.096651 0.152876 -0.238075 0.033972 0.6784220000000001 -0.20144700000000001
” 0.557279 -0.597847 -0.146233 0.182527 0.7692720000000001 -0.007520999999999999 0.233566 0.511156 -0.329469 0.021215 -0.310438 0.350472 -0.026942 0.30180100000000004 0.817451 -0.112344 -0.21118800000000001 0.08746799999999999 -0.341915 0.111502 -0.215054 0.124793 -0.276806 0.290335 0.127669 0.367218 0.050522000000000004 -0.34429099999999996 0.033793000000000004 0.573988 -0.5026619999999999 -0.014785 0.304288 0.22769699999999998 0.05575 -0.22836399999999998 -0.022701 0.561426 0.45796800000000004 0.45241400000000004 -0.41786 -0.14138499999999998 -0.929567 -0.40068400000000004 0.7585649999999999 -0.612588 -0.364175 0.547413 -0.053753999999999996 -0.10678 0.228395 -0.156349 0.212377 -0.042508 0.655877 0.158911 0.331959 -0.412559 0.111509 -0.41714799999999996 0.195936 0.20408800000000002 0.38509 -0.436934 0.171153 -0.700433 -0.295369 0.02157 -0.03115 -0.101798 -0.340329 0.1676 0.001994 -0.56218 0.057138 0.06746 -0.11501800000000001 -0.23321 0.112195 0.302939 0.089277 -0.134976 -0.368886 0.716503 -0.512093 -0.020271 0.172988 0.183643 0.638504 -0.587579 -0.23919 -0.227895 -0.441666 -0.714295 -0.574246 -0.18856900000000001 -0.169752 0.33115100000000003 0.309573
“ 0.215848 -0.014853 0.008542000000000001 0.308711 0.124786 -0.5298069999999999 -0.04092 0.337107 -0.38597800000000004 0.24533200000000002 -0.49317 0.435134 0.324916 -0.130106 0.506826 0.234979 -0.38090300000000005 -0.32741 -0.544665 0.26519899999999996 -0.19171 0.12558 0.187585 -0.24733000000000002 -0.186203 0.42818199999999995 -0.630664 -0.538972 -0.279441 0.5961390000000001 -0.5693600000000001 0.030677999999999997 0.571122 -0.034117 0.059809 -0.316125 -0.0019420000000000001 0.5471020000000001 -0.021772 0.6596850000000001 0.265876 0.48452799999999996 -0.233837 0.056470000000000006 0.340292 -0.71031 -0.16147999999999998 -0.091776 -0.222933 0.21625100000000003 0.152857 -0.031129 -0.351642 -0.12268299999999999 -0.193673 -0.061967999999999995 -0.093343 -0.376803 0.035851 -0.14275 -0.080497 -0.835457 -0.093626 -0.41400200000000004 0.051486000000000004 -0.8593959999999999 -0.275005 0.583386 0.149858 0.37851999999999997 -0.599625 0.20995 -0.47659399999999996 -0.05754600000000001 -0.297982 -0.21868200000000002 -0.293759 0.079815 -0.07889700000000001 0.08693200000000001 -0.133901 -0.44074300000000005 -0.043544 0.6766770000000001 -0.729051 0.175386 0.683484 0.41958 0.462933 -0.629259 -0.5659529999999999 -0.28994000000000003 -0.0015890000000000001 -0.182391 -0.008263 -0.143042 -0.45060600000000006 1.007853 -0.13814500000000002
是 0.35642399999999996 0.23804899999999998 0.26104499999999997 0.737153 0.15983699999999998 0.030144999999999998 -0.438453 0.2357 -0.260168 0.28481599999999996 -0.549535 -0.616807 0.23382199999999997 -0.190092 0.06907 0.09138099999999999 -0.583498 -0.306084 -6.6e-05 -0.024461 -0.093276 -0.608472 0.035608999999999995 0.339017 -0.47503100000000004 0.11753499999999999 -0.456291 -0.170126 0.31952600000000003 -0.358821 0.187529 0.43131 -0.116803 0.362559 0.32093 0.637414 0.6906220000000001 0.360188 -0.019497999999999998 0.293396 0.20926 0.49975200000000003 0.06611 0.194439 0.25183 0.443906 -0.15757100000000002 0.386509 -0.05632 -0.196425 0.28136500000000003 0.055501999999999996 -0.32823800000000003 -0.154639 -0.017284 -0.048227 0.128387 0.014074000000000001 0.11578599999999999 -0.48136999999999996 -0.31501999999999997 0.084074 0.143951 0.17627 -0.089645 -0.218129 0.211098 0.37866500000000003 -0.906027 -0.114195 0.306204 -0.36453800000000003 0.079437 -0.7559100000000001 -0.281192 -1.002605 -0.517289 -0.016438 0.225906 -0.41266099999999994 -0.10313199999999999 -0.44323100000000004 -0.388489 -0.07614299999999999 -0.16322 -0.454679 -0.41345600000000005 -0.28520999999999996 0.031945 -1.09943 -0.17069700000000002 -0.710184 -0.346681 -0.525555 0.389729 0.184843 -0.112248 0.622819 -0.32959499999999997
中国 0.245299 -0.06350900000000001 0.21315599999999998 -0.42939099999999997 0.825422 -0.11901099999999999 0.02137 0.076543 0.08527699999999999 0.492101 -0.050074 0.035595 0.5093810000000001 0.179038 0.456816 0.108855 0.041408 -0.15393099999999998 0.129657 -0.5650649999999999 -0.335973 -0.5154569999999999 0.396934 0.96231 -0.26513400000000004 0.164116 -0.725352 -0.539651 0.760359 -0.151472 0.506642 0.635705 0.648893 -0.183843 -0.131642 0.649702 0.49605200000000005 0.159072 -0.06204 -0.512253 -0.295271 0.12708699999999998 -0.288607 -0.292584 -0.016321000000000002 -0.586327 -0.114622 0.00445 -0.068454 -0.230694 0.5106069999999999 0.191056 -0.35957 0.287977 -0.031445999999999995 0.468448 -0.016571000000000002 -0.764257 -0.014768 -0.600075 0.472969 -0.027864 -0.406401 0.575796 0.38148899999999997 -0.38513400000000003 -0.342893 0.127585 -0.649147 0.057982000000000006 0.37971900000000003 0.335534 -0.504159 -0.258878 -0.09497699999999999 0.002911 0.134969 0.804434 -0.657511 -0.011848000000000001 0.49169700000000005 0.18699100000000002 -0.310367 -0.20310799999999998 -0.284629 -0.065764 -0.19618 0.24526399999999998 0.8137260000000001 -0.534868 0.143717 -0.348675 -0.391534 -0.07451100000000001 -0.207123 0.833282 -0.147526 0.319367 -0.007548
一 -0.361546 -0.7846810000000001 0.318131 0.070521 -0.062915 -0.39105 0.345002 0.2949 -0.177931 0.296937 -0.023812 -0.255529 -0.042020999999999996 -0.375368 -0.20813299999999998 0.550516 -0.07631900000000001 -0.5264770000000001 0.228177 0.050352999999999995 -0.17935 0.12022000000000001 0.7044819999999999 0.070676 0.304273 -0.123108 0.09672 -0.900824 -0.34930900000000004 -0.28339200000000003 0.019790000000000002 0.7426 0.066018 -1.0261770000000001 0.24271199999999998 0.34275 0.16987 0.599966 0.14086300000000002 -0.231897 0.42804 -0.214261 0.188219 -0.42576400000000003 0.38000700000000004 -0.316798 0.096456 0.740866 0.757362 -0.137988 -0.35954899999999995 0.231961 0.583624 -0.03798 0.381878 -0.23819899999999997 -0.202468 -0.00011899999999999999 -0.020918 0.128891 -0.654329 0.057145 0.315835 0.113471 0.545808 -0.392374 -0.47004399999999996 0.582487 -0.141507 0.167191 0.815445 0.07937999999999999 0.340333 -0.25361 -0.38508200000000004 -0.667395 -0.020884 0.311121 0.13708599999999999 -0.441729 0.47442799999999996 0.42628599999999994 0.854893 0.044818000000000004 -0.282036 -0.893849 -1.072725 0.17796900000000002 -0.030398 -0.662062 -0.595441 -0.369175 0.330844 -0.660249 0.131735 -0.072023 -0.405021 -0.085063 0.151285
发展 0.618088 -0.389146 0.31227699999999997 -0.46243100000000004 0.313948 0.5503100000000001 0.003164 -0.253668 -1.048342 0.372825 -0.177226 -0.6428520000000001 0.078212 -0.037913999999999996 0.275462 0.6172340000000001 -0.271278 -1.060661 -0.366667 -0.579937 0.001533 0.399845 0.10905799999999999 0.248189 0.52694 0.22948600000000002 0.42828599999999994 -0.36581199999999997 0.136696 -0.014421000000000002 0.352867 0.610714 0.996764 -0.329918 0.047369 0.10016900000000001 -0.30242199999999997 -0.244892 -0.263261 0.6932729999999999 0.31012399999999996 0.213126 -0.38458600000000004 -0.161011 -0.168954 0.25545 -0.155556 -0.5029859999999999 -0.412293 -0.034489 0.226794 -0.34231100000000003 0.196597 -0.022693 0.177226 0.8493149999999999 -0.65294 -0.55496 0.34111199999999997 0.155617 -0.5244770000000001 -0.07016599999999999 -0.7164659999999999 0.09617300000000001 0.754625 -0.22445500000000002 -0.045622 0.55624 -0.607241 -0.543225 0.9411219999999999 -0.942818 -0.62293 -0.499345 -0.36401300000000003 -0.048374 -0.19334300000000001 -0.233585 0.39212199999999997 -0.027632999999999998 -0.189433 0.198772 -0.642964 0.14796700000000002 1.313232 0.065252 -0.173546 -0.327932 -0.077334 -0.023107 -0.635321 0.316944 -0.058896000000000004 -0.126879 -0.585763 0.560959 0.504659 0.222275 0.160776
我们 -0.454254 0.10611099999999998 1.1006280000000002 0.050832 -0.329021 0.16180999999999998 -0.737192 0.23861100000000002 -0.12095 0.019645 0.040664 -0.197751 0.320339 0.197037 0.170087 0.905064 -0.8826120000000001 -0.006895999999999999 0.09587799999999999 0.742991 0.21822800000000003 -0.640622 0.63803 0.325273 0.095024 -0.14016199999999998 -0.16500499999999999 -0.725733 0.46557299999999996 0.297296 0.15548399999999998 -0.173849 0.041483 0.215752 -0.42655200000000004 -0.5245770000000001 0.87402 0.24597800000000003 0.10978199999999999 -0.202423 -0.4928 0.36035300000000003 0.037616000000000004 -0.2686 -0.11563499999999999 -0.999202 -0.824702 -0.21689099999999997 -0.354794 0.005203 0.713001 0.703786 -0.513862 -0.43831400000000004 0.309763 -0.300225 0.139072 -0.44536099999999995 0.509249 0.472034 -0.5919810000000001 -0.604234 -0.43057 0.22380500000000003 -0.128182 -0.291883 0.044436 0.346604 -0.30662 -0.209015 -0.143794 -0.314434 0.037599 0.354514 -0.392013 0.29394499999999996 -0.208101 0.106011 0.21003000000000002 -0.317071 0.281585 0.158699 0.368677 0.44246599999999997 0.24922399999999997 -0.5614899999999999 -0.7494529999999999 -0.350145 0.249007 -0.523221 -0.154611 0.361958 -0.272856 0.124063 0.075075 0.163736 -0.25957399999999997 0.359146 -0.134234
人民 0.422997 -0.134793 1.140328 -0.038549 -0.752491 0.20604 0.016471 -0.504513 -0.043249 -0.425497 0.018469 0.377333 0.059889 0.084003 0.30341 0.912117 0.154588 -0.5512130000000001 -0.5271779999999999 0.025654000000000003 0.16228399999999998 -0.530103 -0.02279 0.591196 0.18218399999999998 -0.059290999999999996 -0.156696 -0.552219 0.5204439999999999 0.665912 -0.496741 0.645699 -0.350175 -0.20986 -0.061048000000000005 -0.160197 0.49349799999999994 -0.17153800000000002 0.049776 0.518555 0.10094500000000001 0.876993 -0.526537 -0.297401 -0.081511 0.281704 -0.470287 -0.01273 0.504063 -0.391344 0.24285199999999998 -0.052517999999999995 -0.177296 -0.737939 0.409088 -0.193654 0.374555 -0.625818 0.454413 -0.27419099999999996 0.162433 -1.286216 -0.713113 0.221964 -0.42802399999999996 0.483479 -0.022104 0.25841 -1.0699809999999998 -0.6611630000000001 -0.412145 0.444017 0.642586 -0.243234 -0.312013 0.16761600000000001 -0.48906000000000005 0.326371 -0.819148 -0.13768699999999998 0.625801 0.507648 0.35179699999999997 0.008749 -0.149973 -0.031172000000000002 -0.015267 -1.1435819999999999 -0.227622 -0.294966 -0.009966 0.011045999999999999 -0.18368299999999999 0.127578 0.29040900000000003 0.574973 0.284233 0.682096 -0.161445
新华社 -0.086613 0.518397 -0.572267 -0.6893560000000001 -0.30887600000000004 -0.585797 0.747934 0.081445 -0.20596199999999998 0.042293 -0.743853 0.8204040000000001 0.33503099999999997 -0.05787899999999999 1.074666 1.013274 0.018146000000000002 -0.676056 0.144617 -0.424314 -0.386348 -1.2771290000000002 -0.095735 0.09443 -0.595308 -0.528055 0.9777370000000001 -0.723446 0.258213 -0.225634 0.262614 0.10761400000000002 -0.9169290000000001 -0.373396 -1.079232 0.972424 -0.45831400000000005 0.805625 0.69698 -0.7318020000000001 0.694397 0.154283 0.455718 -0.901768 0.315336 0.6213489999999999 -0.25406100000000004 -0.20463599999999998 -0.549453 -0.793289 -0.44273900000000005 -0.461085 0.765255 0.414487 0.315069 0.35131599999999996 -0.5438029999999999 -1.566244 0.445553 0.2722 0.291375 -1.415476 0.081147 1.0256319999999999 0.77876 -0.000599 0.140224 1.003099 -0.9192110000000001 -0.6872189999999999 -0.575342 0.9563370000000001 -0.696419 0.200819 0.6590010000000001 0.663057 -0.241738 1.858668 -0.61402 -0.595496 1.346769 -0.628893 0.028122 -0.119373 0.051261 0.368759 0.7079310000000001 -0.16187200000000002 -0.276573 -1.1013709999999999 -0.317863 0.171931 -0.543852 0.29385100000000003 -0.317343 0.134631 -0.794624 1.296553 0.335363
工作 0.50903 0.168647 0.784826 0.07649299999999999 0.437295 -0.027103 0.794633 -0.052502 -0.615846 0.8185100000000001 -0.0009339999999999999 0.042332999999999996 -0.181175 -0.4339 0.509091 0.054567 -1.0806209999999998 0.672098 -0.9660049999999999 -0.24418800000000002 0.52671 0.356029 0.096255 0.992735 -0.058535000000000004 0.0284 0.12271099999999999 -0.514196 -0.17597000000000002 0.12271199999999999 -0.08823099999999999 -0.449009 -0.101115 -0.10422200000000001 -0.10928900000000001 0.11973800000000001 0.572796 0.256816 -0.802543 0.7203430000000001 0.806859 -0.171098 0.42118599999999995 0.557413 -0.297944 -0.11426300000000002 -0.44646 0.00011 0.033601 -0.126434 -0.145878 0.314755 -0.22108200000000003 -0.083129 -0.610375 -0.066176 0.322708 -0.527408 0.253337 -0.394762 -0.17438499999999998 -0.39810300000000004 0.072591 0.18509 0.643609 -0.085825 0.140012 -0.414063 -0.325705 -0.060367 -0.755209 0.145981 0.305714 -0.18166300000000002 -0.293752 0.466876 -0.05921799999999999 0.400672 -0.22105300000000003 -0.279258 0.40419099999999997 0.071768 -0.7367779999999999 0.604769 0.558979 0.26766799999999996 0.381635 -1.014964 0.510893 -0.378963 -0.446945 0.411063 -0.318917 -0.5602550000000001 -0.8297760000000001 0.26525 0.912325 0.60218 -0.514062
　　 0.073642 0.49493000000000004 -0.629894 0.135178 0.7763260000000001 0.11681099999999998 -0.165606 0.734533 -0.49190500000000004 0.369587 -0.318711 0.503179 -0.348464 -0.286356 0.186154 0.8635459999999999 -0.102396 0.18890099999999999 -0.21436599999999997 0.11077999999999999 -0.24319899999999997 -0.10513099999999999 -0.202531 0.070806 -0.406433 -0.292875 0.47137799999999996 -0.14465699999999998 0.653359 0.381158 0.276527 0.109622 0.23024 0.063749 -0.7227439999999999 0.28775700000000004 0.50946 0.475998 0.03204 0.17293499999999998 -0.173235 0.023653999999999998 -0.598643 -0.400698 0.392962 0.690062 -0.47519700000000004 0.07885299999999999 -0.458243 0.040497000000000005 0.22685 -0.0994 0.1428 0.141322 -0.007759 0.458304 -0.146083 -1.1656520000000001 0.514031 -0.165804 0.708871 -0.309231 0.540988 0.277674 0.293012 -0.692541 -0.069188 0.336952 -0.45645600000000003 -0.20260699999999998 0.022844 0.929791 -0.529562 -0.005441 -0.099981 -0.232334 -0.5702229999999999 -0.18898299999999998 -0.719097 -0.181977 0.35789899999999997 -0.094997 -0.166575 0.137708 0.532166 -0.534072 -0.06947 -0.28033 0.042841000000000004 -0.9074040000000001 -0.826943 -0.46109799999999995 -0.48686999999999997 -0.085863 -0.1355 -0.125709 -0.177677 0.38916799999999996 0.009807
一个 -0.485256 -0.119486 0.47343999999999997 0.500252 0.1539 0.106387 -0.36201300000000003 0.412828 0.407426 0.176034 -0.452032 -0.215231 0.5117510000000001 0.15518800000000002 -0.490291 0.5779850000000001 -0.595075 0.365063 -0.002437 0.037724 0.420121 0.080481 0.343017 0.21495100000000003 -0.065211 -1.034935 -0.498355 -0.537822 -0.191198 -0.232174 -0.487824 -0.08723 -0.549276 -0.25400900000000004 0.735225 0.871683 -0.27679000000000004 0.616108 0.205923 0.595475 0.064037 -0.346909 0.130807 -0.385279 0.231593 -0.334092 -0.439691 -0.444671 0.18550999999999998 0.044761 -0.20413199999999998 -0.009913 0.11254700000000001 -0.356869 -0.288378 0.25568 -0.261305 -0.13206800000000002 -0.059004999999999995 -0.09853200000000001 -0.603324 0.11358299999999999 -0.185028 0.262423 0.361741 -0.18221400000000001 -0.21653699999999998 0.487803 -0.607759 0.73498 0.396943 -0.594653 -0.481134 -0.591465 -0.08542999999999999 0.014497999999999999 -0.542157 -0.134971 -0.128806 -0.609558 0.185067 0.410826 0.278605 0.546057 -0.172774 -0.914575 -1.266973 -0.126139 0.342211 -0.013262000000000001 0.030126 -0.470815 -0.016866 -0.382399 -0.558266 0.281489 0.140389 -0.533452 -0.365352
（ 0.082177 0.572172 -0.41678699999999996 -0.475463 0.519159 1.220532 -0.118345 -0.27502600000000005 -0.439974 0.24789099999999997 -0.112076 0.287035 -0.044731 -0.226091 0.058803999999999995 0.48021 -0.340686 0.16547 0.595068 -0.398022 -0.54879 -0.47758999999999996 -0.017169999999999998 -0.432492 0.069003 -0.236246 0.23652199999999998 0.163158 -0.314089 0.713514 -0.395068 -0.18451800000000002 0.163771 -0.008073 -0.8048890000000001 0.097229 -0.235289 0.813213 0.358656 0.572274 0.075614 0.016973 -1.100732 -0.3983 0.566615 -0.538007 -0.492349 0.516552 -0.521065 0.55997 0.215631 -0.949931 0.352179 -0.333088 0.162925 0.9425979999999999 -0.1695 -1.069115 0.91638 -0.357982 -0.103431 -0.776937 0.8753540000000001 -0.504191 0.618362 -0.358669 -0.7468560000000001 0.288475 0.391366 -0.31301 -0.100159 0.41130600000000006 0.12244200000000001 -0.500973 -0.153763 0.7638 -0.655195 0.814501 0.5063380000000001 0.351053 0.47388 0.203368 0.512942 0.102374 -0.132664 0.033745 0.23861 0.129806 -0.464743 -0.897251 -0.512536 -0.043852999999999996 -0.335094 -0.411513 0.069246 0.393844 -0.191991 0.51557 0.48115
： 0.074014 0.050237000000000004 0.730067 0.100618 0.24983699999999998 0.034877 -0.031022000000000004 0.9655389999999999 -0.515953 0.7889430000000001 -0.155387 0.7404229999999999 0.34724499999999997 0.18143 0.178394 0.296217 0.042214999999999996 -0.132666 -0.41305 0.6557970000000001 0.18581 -0.140328 0.24501799999999999 0.100751 -0.237019 0.013827 -0.068608 -0.399593 0.959153 0.441463 -0.013074 0.348787 0.485702 0.319914 -0.867042 -0.28357899999999997 0.293988 1.187134 -0.166159 0.6753640000000001 0.6412869999999999 0.345733 -0.093818 0.10349900000000001 0.17536 0.413278 -0.176643 -0.380262 0.08874800000000001 0.007369 1.041763 -0.056527999999999995 0.41025 -0.13261099999999998 -0.098686 0.620704 -0.02128 -0.534748 -0.027783999999999996 -0.249639 -0.565412 -0.453568 0.490124 0.148871 0.087434 -0.9390350000000001 -0.204283 1.275554 0.07598300000000001 0.147498 -0.14549 -0.19888699999999998 -0.420472 -0.020368 -0.671384 -0.686242 -0.20334000000000002 -0.051334000000000005 -0.28175700000000004 0.885242 0.44858400000000004 -0.576858 0.5506449999999999 -0.303884 0.279134 -0.22691599999999998 -0.592689 0.114284 -0.30885799999999997 -0.583138 -0.7156600000000001 -0.501528 -0.544433 -0.923632 -0.10628800000000001 0.09056499999999999 -0.398779 0.321874 -0.102099
月 -0.131881 -0.629359 -0.272829 -1.071955 -0.131712 0.18142 0.007162000000000001 -0.0016190000000000002 0.574867 -0.284877 -0.6317699999999999 -0.039218 -0.101391 0.37796199999999996 0.249025 0.659049 -0.812075 0.079828 -0.67069 -0.558215 -0.748818 0.46057700000000007 0.136236 -0.15016 0.8278540000000001 0.170188 -0.132856 0.275323 1.011004 0.17838800000000002 -0.256387 0.335621 -0.184672 -0.44287200000000004 -0.41613599999999995 0.343667 -0.476814 0.369647 0.48513500000000004 0.158545 0.058491999999999995 -0.024956 0.273577 -0.19313699999999998 -0.379867 0.683863 0.032333999999999995 0.433594 -1.309868 0.233529 0.041877 0.301247 0.436507 -0.07871 0.008747 0.546112 -0.11491900000000001 0.12533 0.364398 -0.033055 0.218158 -0.721603 1.037665 0.16101500000000002 0.116976 0.247813 -0.49346899999999994 0.861675 -1.207683 0.33016799999999996 -0.9762540000000001 1.341651 -0.867873 -0.084595 0.437496 -0.2989 -0.470013 0.354609 -0.395345 -0.617392 0.14531 -0.048383999999999996 0.111446 0.5296489999999999 -0.637289 -0.185401 -0.139098 0.147925 -0.3634 -0.486504 -0.167514 -0.42818 0.037057 0.317241 -0.551377 0.22177800000000003 -0.192177 -0.176777 -0.23749299999999998
为 0.224856 -0.181154 0.075677 -0.144705 0.326834 0.23665799999999998 -0.588723 0.9080809999999999 -0.575593 -0.12220999999999999 -0.43861000000000006 -0.282271 0.940376 -0.185052 0.059197 0.346292 0.06917999999999999 -0.15294000000000002 -0.287405 -0.043539 0.745663 -0.379042 0.059739 0.587873 -0.55196 -0.381223 -0.663882 0.147722 0.144306 -0.46556899999999996 0.442716 0.678294 -0.324804 -0.171237 -0.27908299999999997 0.46553 -0.18226900000000001 -0.145878 0.234301 -0.659779 0.47271499999999994 1.142259 -0.6026229999999999 -0.151798 -0.21175 0.09504800000000001 0.36724 -0.07702300000000001 0.375934 -0.06518600000000001 0.072646 -0.508596 -0.089963 0.361425 -0.617749 0.057771 0.089129 -0.342159 0.609978 -0.47717299999999996 0.578991 -0.919127 -0.8189310000000001 -0.08416799999999999 -0.068499 -0.302383 0.331861 -0.072525 0.053704999999999996 -0.148524 -0.762518 0.094661 0.42463100000000004 0.09336799999999999 0.174293 -0.8085640000000001 -0.653047 0.45432 0.659451 -0.526389 0.200375 -0.255882 0.167831 0.24657199999999999 0.555344 -0.252628 0.24195100000000003 -0.389016 -0.158027 -0.888584 -0.366297 0.1245 -0.111884 -0.737688 0.649664 -0.715625 -0.077918 0.473678 0.26671
社会主义 0.530331 -0.391206 0.944609 -0.310719 -0.088978 0.173239 -0.934989 -0.505997 -0.44946400000000003 -0.28555 0.094891 -0.30423 -0.5765859999999999 0.8971309999999999 0.47891300000000003 0.521404 -1.218759 -0.340546 -0.329786 -0.099892 0.475188 -0.15754100000000001 0.156001 0.905524 -0.21071700000000002 -0.35083400000000003 0.284985 -1.8227669999999998 0.25704299999999997 0.22885300000000003 0.701965 0.170842 -0.121048 0.185449 0.234042 1.48243 0.38137600000000005 -0.564917 -0.018656 0.746556 0.00296 1.384519 -0.137287 0.350223 0.076402 -0.054026 -0.374191 -0.61905 -0.446738 0.197677 -0.398354 0.075788 0.412797 0.278351 -0.031396 0.036610000000000004 -0.40717800000000004 -0.127057 0.798031 -0.078997 -0.387366 0.096413 -0.8526 0.41146099999999997 0.345125 0.674241 -0.199489 0.6750430000000001 -0.247123 -0.34778600000000004 0.45035200000000003 0.390148 0.390279 -0.095367 -0.57104 -0.05366900000000001 -0.362977 0.137871 -0.304872 -0.397332 0.14086700000000002 -0.105022 0.544251 0.577232 0.35367600000000005 0.24420100000000003 0.129197 -1.185959 -0.016812 -0.074616 -0.16409400000000002 0.165648 -0.106629 0.333892 -0.5483439999999999 -0.036162 0.001172 0.594668 -0.630121
对 0.540863 -0.40755 0.40608299999999997 0.675231 0.002934 0.050765 -0.536709 0.11255599999999999 -0.529046 0.087522 -0.299619 0.18140599999999998 0.290579 -0.752293 -0.577753 0.238946 0.056726 -0.125873 -0.254861 -0.468879 -0.11461700000000001 0.006702 0.483142 0.723491 -0.624848 -0.535065 -0.278737 -0.012546999999999999 0.25961599999999996 0.116871 -0.32366500000000004 0.04243 0.057798 0.040905000000000004 -0.059064 0.342389 0.10756800000000001 0.0034799999999999996 0.120897 0.361149 0.044568 0.684268 -0.167598 0.34718899999999997 -0.430076 -0.044312 -0.508023 -0.008245 0.46442799999999995 -0.200713 0.178214 0.057928999999999994 0.367622 0.21431399999999998 -0.673122 0.44043699999999997 0.009075 -0.46474899999999997 0.131768 0.27718000000000004 -0.30226 -0.161439 -0.021981999999999998 -0.117123 -0.017809000000000002 -0.409427 -0.256567 0.304498 -0.506875 -0.039327 -0.190186 0.004344 -0.567226 0.22811399999999998 0.28529299999999996 -0.258602 -0.17413499999999998 0.260813 0.38346399999999997 0.007758 -0.083736 -0.673905 -0.364663 0.186133 -0.17280399999999999 -0.242075 0.434929 -0.22910100000000003 -0.15953499999999998 -0.919617 -0.07596599999999999 0.114625 -0.618562 -0.796941 -0.15342999999999998 0.248417 0.5289659999999999 0.664257 -0.160794
他们 -0.12157899999999999 -0.153634 0.772957 0.1272 -0.284114 -0.185331 -0.561611 0.812905 -0.327796 0.126953 -0.103082 -0.28025500000000003 -0.184907 0.23975300000000002 0.572225 0.327797 -0.428122 -0.051661 -0.157316 -0.073764 0.165012 -0.597676 0.58658 0.33852899999999997 -0.301537 -0.5970880000000001 -0.153523 -0.495025 0.652424 -0.024977000000000003 0.162522 0.275663 -0.29740300000000003 -0.128361 -0.1845 -0.469736 0.76928 0.347597 0.163722 0.18356 -0.093812 -0.002437 -0.353272 0.252282 0.184561 -0.9161459999999999 -0.647071 -0.225577 -0.282418 -0.300288 0.079436 0.902199 -0.175886 -0.293427 0.121262 -0.7048220000000001 -0.021998 -0.699926 -0.09119 0.597699 -0.155609 -0.545067 -0.537362 0.009009 0.026023 -0.45751800000000004 -0.30838699999999997 0.468763 -0.304208 -0.182552 -0.084819 0.28068899999999997 0.029276 0.054261000000000004 -0.093507 0.264737 0.175532 0.403202 0.9313809999999999 -0.23863499999999999 0.057291999999999996 -0.076487 -0.184502 0.125711 0.124752 -0.990491 -0.742387 -0.095862 -0.066105 -0.129331 0.41848500000000005 0.351168 -0.611406 -0.208483 -0.333382 0.032681 -0.103528 -0.019044 0.22921799999999998
年 0.330868 -0.23385799999999998 -0.002273 -0.286709 0.11104000000000001 0.30959699999999996 0.104651 -0.396923 0.237033 0.124549 0.027701 -0.396955 -0.43549099999999996 -0.613151 0.009945 0.6210289999999999 -0.381103 -0.189974 -0.5117 0.061644000000000004 -0.288188 -0.030267000000000002 0.033037000000000004 -0.36340300000000003 0.197752 -0.205882 -0.607255 -0.036899 0.653504 0.159497 -0.14299800000000001 0.41967200000000005 0.125436 -0.117352 -0.258156 1.017327 -0.224874 0.470185 0.7907350000000001 0.268204 -0.470521 0.138521 -0.528561 0.094951 -0.108178 0.016815 0.25027 0.245928 0.023778 -0.592535 0.056639999999999996 0.245902 0.684604 -0.012015000000000001 -0.037677999999999996 0.222958 0.140061 0.34354 -0.15146300000000001 0.652679 0.509459 -0.222448 -0.41578000000000004 0.003246 -0.63634 -0.36751300000000003 -0.638861 0.5776680000000001 -1.494514 -0.902747 -0.513606 -0.20611999999999997 0.145528 0.11888900000000001 -0.43385 0.17506 -0.431334 -0.11073800000000002 0.574481 -0.46195600000000003 -0.424569 0.48943400000000004 0.476195 0.28179699999999996 -0.46682299999999993 0.531276 0.27653 0.221212 -0.368478 -0.449297 0.349211 -0.438975 0.17190899999999998 -0.22873000000000002 -0.239398 -0.119797 -0.098156 -0.493307 0.195003
有 -0.318826 -0.035563 0.34070500000000004 -0.07039 0.278275 -0.080123 -0.578368 0.370794 0.399885 -0.081165 -0.601333 -0.024516999999999997 0.153593 -0.239456 0.194822 0.043983999999999995 0.413322 -0.703471 -0.336541 0.180096 0.045948 -0.310113 0.018331999999999998 0.351854 -0.37854299999999996 0.061158000000000004 -0.180729 -0.216819 0.42932299999999995 0.053600999999999996 0.467105 0.549976 0.364333 -0.19716 -0.7852560000000001 1.175201 0.49946499999999994 0.28735900000000003 -0.242114 0.7291949999999999 0.121709 -0.063959 0.258213 0.083334 0.142544 0.342224 -0.043075999999999996 -0.42363999999999996 -0.580655 0.528822 0.097084 0.23603200000000002 0.005408 0.07087 -0.256824 0.141301 -0.2676 -0.255598 -0.034817 -0.06350599999999999 -0.165828 -0.049349000000000004 0.28166399999999997 -0.32457600000000003 0.15443900000000002 -0.175217 -0.49025799999999997 0.242463 -0.469559 0.242502 0.354987 -0.047895 0.6936859999999999 -0.168548 -0.781552 -0.241738 -0.690285 0.690808 0.07610900000000001 -0.40452 -0.039185000000000005 0.15425 -0.080121 0.928426 0.17921900000000002 -0.943372 -0.039838 -0.112748 0.467992 -0.53622 0.179948 -0.550218 -0.081481 -0.666918 -0.253396 0.474743 -0.558841 -0.255909 -0.21630700000000003
问题 0.30249499999999996 0.016505000000000002 0.149847 0.338154 0.44316700000000003 0.350986 0.035144 -1.0397 -0.791845 0.291045 -0.33471100000000004 -0.186418 -0.201022 0.43821000000000004 0.211679 0.35220999999999997 -1.243724 -0.328536 -0.398422 -0.383386 0.29042199999999996 -0.18443199999999998 0.383802 0.466552 -0.024063 -0.288937 0.9974780000000001 -0.22241 0.000259 0.100897 -0.462579 0.43501999999999996 0.593051 0.43716000000000005 -0.273393 0.6218229999999999 0.040642000000000005 0.322119 -0.012424 0.149641 -0.131605 -0.15809 -0.317959 -0.00732 -0.47258900000000004 0.12639 -0.24819899999999998 -0.507378 0.610137 -0.24771100000000001 0.063709 0.113256 -0.063038 0.29076199999999996 0.023286 0.515221 -0.3489 -0.183199 -0.096042 -0.196151 -0.31148000000000003 -0.7126100000000001 -0.10903199999999999 0.449578 0.336223 -0.46270900000000004 0.224045 1.337325 0.10693299999999999 0.14045 -0.41741300000000003 -0.5451729999999999 -0.08049500000000001 -0.479821 -0.049075 0.43476499999999996 0.187551 -0.018197 0.373836 -0.248574 0.216306 -0.45398299999999997 0.004211 0.7975939999999999 -0.099259 -0.8560479999999999 0.43050900000000003 -0.32233 -0.348418 -0.451276 -0.038165 0.257944 -0.031921 -0.145485 0.351985 -0.024367 0.8235370000000001 0.5623520000000001 -0.410041
进行 0.5061329999999999 -0.619429 -0.392218 0.364719 0.41876499999999994 -0.1291 0.808577 0.46403900000000003 0.035741 0.317183 -1.024501 -0.724196 -0.22601999999999997 0.6482 0.415024 0.5308390000000001 0.216836 -0.762337 -0.136457 -0.423771 0.207441 -1.198146 0.080966 0.103349 -0.395434 -0.7772479999999999 0.509704 -0.780131 0.21752600000000002 0.6487350000000001 0.28441700000000003 0.7219369999999999 -0.254176 -0.082636 -0.02827 -0.200443 -0.184928 -0.315332 0.316398 0.579467 0.495575 -0.155522 -0.1403 -0.265227 -0.543667 0.355144 -0.527017 -0.07161000000000001 -0.41705200000000003 -0.406248 -0.215968 0.526572 0.072767 -0.182643 -0.37403400000000003 -0.21931900000000001 -0.17461 -0.08101699999999999 0.43476899999999996 -0.590255 -0.283042 0.7525270000000001 0.304444 -0.019066999999999997 0.59973 -0.177197 -0.512876 0.66064 -0.321304 -0.408058 -0.165777 0.437846 0.13781400000000002 0.10930999999999999 0.522822 0.571993 -0.9692540000000001 -0.043322 -0.292414 -0.576813 0.33372199999999996 0.802467 0.388162 0.290061 0.484781 -0.951202 -0.668683 -0.391441 0.239696 -0.304605 0.022293 0.301091 -0.353187 -1.05844 0.044761 -0.214878 -0.150834 0.297541 -0.492005
等 0.20908200000000002 -0.8063640000000001 0.050616 -0.118368 -0.160162 -0.194984 -0.039698000000000004 -0.242492 0.259676 -0.074298 -0.025065999999999998 -0.879445 0.202061 -0.33121100000000003 0.188913 0.475361 0.434629 -1.092533 0.081566 -0.5716439999999999 -0.316701 -0.377073 -0.46508599999999994 0.529859 0.125127 -0.657162 0.253494 -0.36599 -0.6340399999999999 -0.296275 0.33561399999999997 0.070739 0.24243800000000001 0.644927 -0.360046 -0.120146 0.106626 0.376809 -0.265234 -0.14415 -0.03274 0.102565 -0.19073299999999999 -0.0007769999999999999 -0.903653 0.088431 -0.506004 -0.192132 0.110667 -0.336072 -0.016595 0.12011300000000001 -0.509834 0.761241 0.643749 0.194994 -0.337905 -1.15709 0.346053 -0.051504999999999995 -0.550149 0.045879 0.32818400000000003 0.075941 0.196796 -0.264033 -0.36796799999999996 -0.049727999999999994 0.191576 -0.141447 0.171352 -0.45251199999999997 -0.0029519999999999998 -0.547554 -0.186227 0.369695 -0.41607700000000003 -0.14924 0.268088 0.318969 0.14063599999999998 0.116164 0.40765 0.365992 -0.133358 0.12168 0.133191 -0.057387 -0.008368 -1.28778 -0.036371 -0.11183699999999999 0.06375 -0.300165 -0.45067799999999997 -0.181056 -0.145834 -0.44876800000000006 0.09871
国家 0.384952 -0.42558900000000005 0.577191 -0.258166 0.348667 0.108748 -1.15331 0.050402999999999996 0.367101 -0.010469 -0.36590100000000003 -0.24770599999999998 0.03167 0.37051100000000003 0.396857 -0.053845000000000004 -0.28436300000000003 -0.8947510000000001 0.037110000000000004 0.4135 0.364741 -0.017351 -0.23116399999999998 0.731981 -0.060770000000000005 0.967249 -0.27833 -0.418343 0.277632 -0.14380199999999999 0.298028 0.907552 0.343244 0.508839 -0.21980300000000003 0.711479 0.918098 -0.376219 0.344609 0.039022 -0.151229 -0.010047 -0.710551 -0.376135 -0.010316 -0.330769 0.136595 -0.5385449999999999 -0.107676 -0.565254 -0.364065 -0.013283000000000001 -0.616106 -0.41961899999999996 0.6397 0.050982 -0.20623400000000003 -0.087713 0.305055 0.098397 -0.34735 -0.926802 -0.698149 0.751614 0.5642550000000001 -0.093001 -0.49689300000000003 0.031243 -0.260658 -0.009335 -0.305174 0.724983 0.632261 -0.869765 -0.793053 0.518301 0.33784200000000003 0.307373 -0.590458 -0.320871 0.33460100000000004 -0.283031 -0.207461 0.46487799999999996 -0.042051 -0.42846599999999996 0.21485300000000002 -0.43490200000000007 -0.165117 -0.995064 0.131699 0.490017 0.107768 0.221094 -0.368102 0.11861400000000001 -0.156975 0.797096 0.143361
中 0.467417 -0.16894800000000001 -0.417242 -0.38602600000000004 0.29436100000000004 -0.19276300000000002 -0.725842 0.16886400000000001 -0.542175 0.194324 0.26259 0.388986 0.15974100000000002 -0.45099399999999995 0.373854 0.635658 0.110925 0.115898 0.218914 0.5441560000000001 0.318225 -0.282614 0.037596 0.23365500000000003 -0.706214 0.5717369999999999 0.571937 -0.116852 -0.40016799999999997 0.293581 -0.163508 0.48466099999999995 -0.19617 0.021095 0.055002999999999996 0.29034299999999996 0.329005 0.523357 0.378525 -0.42765299999999995 0.42133999999999994 0.36785999999999996 -0.026692 -0.013456000000000001 -0.797668 -0.579633 0.053814999999999995 -0.39584600000000003 0.442887 -0.116783 0.23172800000000002 0.3267 -0.279445 0.427595 -0.069965 0.036019 -0.35575100000000004 -0.5191060000000001 0.055608000000000005 0.010158 0.245757 0.335619 -0.6718270000000001 -0.42839799999999995 -0.485546 -0.035904000000000005 0.355838 0.317306 -0.03347 -0.85674 0.22921 -0.504495 0.9610200000000001 -0.561847 -0.377745 -0.48763100000000004 0.082688 0.393273 0.29798600000000003 0.399965 0.607348 0.26929200000000003 0.114755 -0.126556 -0.088942 0.11021900000000001 -0.21689299999999997 -0.49569399999999997 0.37948200000000004 -0.654704 -0.358904 -0.389471 -0.642576 -0.140018 0.102359 -0.474258 -0.22862 0.403431 -0.253846
　 0.607875 0.27087 -0.33708499999999997 -0.26523 0.386004 0.570915 0.172048 0.169903 0.29886399999999996 0.103122 -0.465046 1.374751 -0.019621 -0.357575 0.06386 0.8879940000000001 -0.11538499999999999 -0.23379899999999998 -0.49755200000000005 -0.556683 0.226492 -0.662674 0.157335 -0.6659189999999999 -0.029514999999999996 0.057698 0.556758 0.131975 0.689332 0.238181 -0.06468600000000001 0.594912 -0.443867 -0.31085999999999997 -0.968933 0.236231 0.078194 0.419206 0.552238 0.367087 -0.176315 -0.141781 -0.492526 -0.615588 0.045226 0.41000299999999995 -0.708958 0.2659 -0.501576 -0.185355 0.187046 -0.729916 0.7000770000000001 0.494213 -0.653072 0.375702 -0.444068 -1.365372 0.512731 0.504152 -0.120843 -0.996397 0.117927 0.37445900000000004 0.899338 -0.537273 -0.064804 0.927939 -0.312348 -0.21948499999999999 -0.8250200000000001 0.095674 -1.154934 0.406942 -0.09435299999999999 -0.352408 -0.250658 0.649584 -0.74124 -0.10479200000000001 0.6224729999999999 -0.303305 0.036795 -0.586978 -0.12270999999999999 0.32445100000000004 0.577747 0.039181 0.021514 -0.8945930000000001 -0.366365 -0.583205 -0.826947 -0.625862 0.224802 0.111805 -0.9195479999999999 0.49729399999999996 0.443586
记者 0.703129 0.076685 0.381162 -0.827573 -0.49603100000000006 0.217419 0.11823499999999999 0.038761000000000004 -0.295829 0.10092999999999999 -0.49002799999999996 0.799057 -0.235062 -0.320907 0.558884 0.062373000000000005 0.11903599999999999 -0.318071 -0.097902 -0.64589 0.046361 -1.167093 -0.171301 0.171093 0.261874 0.165761 0.146602 -0.594557 0.393127 0.033056999999999996 0.437008 0.252632 1.210366 -0.069146 -0.423752 -0.281536 -0.5664279999999999 0.38235 0.037038 -0.121428 -0.138733 0.26511599999999996 -0.8986559999999999 0.20561300000000002 0.458995 0.10396300000000001 0.082617 0.10934 -0.0005 -0.204702 0.012761 -0.055098 0.640871 -0.075502 -0.23076300000000002 0.19150999999999999 0.226187 -0.431989 0.568379 0.5504760000000001 -0.476313 -1.059012 0.6998300000000001 0.362657 0.47098100000000004 0.79645 -0.027471 0.663261 0.291623 0.317554 -0.278013 0.484633 -0.643733 0.658507 -0.179925 0.761155 -0.34986799999999996 1.0387959999999998 0.276723 -0.405994 0.31145100000000003 0.936644 -0.298659 -0.219797 0.767598 -0.030782999999999998 0.110304 0.082987 -0.583521 -0.487505 -0.313683 -0.243065 0.194465 1.009308 -0.713692 0.155102 -0.026099 1.357442 0.273469
上 0.3627 -0.41053100000000003 0.063958 0.063456 0.670389 0.165332 -1.014422 -0.047972 -0.620935 0.22854899999999997 -0.308938 -0.09374099999999999 0.022675 -0.737038 -0.091907 0.622558 0.23848200000000003 0.152974 -0.159182 0.631057 0.98135 -0.356034 -0.378299 0.367478 -0.23767800000000003 0.22534099999999999 0.864662 -0.426149 0.008882 -0.48426199999999997 0.297594 -0.257318 0.554764 -0.483378 0.511826 -0.450859 0.25350100000000003 0.846932 -0.174527 0.41053100000000003 0.7769189999999999 0.029095999999999997 0.38660100000000003 -0.851807 0.112228 -0.256484 0.079453 0.278939 0.773451 -0.088758 -0.080594 -0.412696 -0.385335 0.064446 -0.8316819999999999 -0.378988 -0.146583 -0.328072 0.043577 -0.078064 0.104966 0.13267 -0.021408 0.156546 0.29982600000000004 -0.379158 0.6998850000000001 0.6679109999999999 -0.095738 -0.9357850000000001 -0.194859 0.045864 0.630075 -0.131643 -0.33669299999999996 -0.187751 -0.010216 -0.099785 0.096703 0.186885 0.31188899999999997 -0.094677 0.6681090000000001 -0.44053100000000006 0.47884799999999994 -0.750192 0.191048 -0.698781 -0.088747 -0.522122 -0.706553 -0.22746799999999998 -0.370436 0.184765 -0.447259 -0.101503 -0.292143 -0.49470299999999995 -0.211404
也 0.283407 0.063848 0.039685000000000005 0.32110900000000003 -0.532644 0.495734 -0.841936 0.568588 0.13653099999999999 0.121859 -0.42676400000000003 -0.415763 0.233621 0.37501599999999996 -0.20952300000000001 0.520165 -0.37100500000000003 -0.679431 0.21588000000000002 0.234604 0.273309 -0.620314 0.20962399999999998 0.578177 -0.160171 0.144617 -0.166269 -0.083747 0.279559 -0.251093 0.15541300000000002 -0.143736 0.457211 -0.146179 -0.025498 -0.025874 0.154443 0.28345 -0.274237 0.00073 -0.333329 0.089119 -0.914013 -0.023702 0.336215 -0.445554 -0.322565 -0.293432 -0.382576 -0.114776 -0.369614 0.41273999999999994 0.039633 0.18851400000000001 -0.174744 0.34544400000000003 0.479024 -0.054592999999999996 -0.111786 -0.158143 -0.8670469999999999 -0.15248499999999998 -0.03581 -0.198151 0.647352 -0.582167 -0.015755 0.204125 -0.340699 -0.148973 -0.164501 -0.409546 0.221271 0.133671 0.395946 -0.571643 0.23535799999999998 0.179362 0.237446 -0.096458 -0.447878 -0.203966 0.6201840000000001 -0.41005699999999995 0.121806 -0.359244 0.179352 -0.095014 -0.207697 -0.402384 0.053350999999999996 0.378485 -0.167855 -0.48396300000000003 0.7688189999999999 -0.07689700000000001 0.005538 0.036763 0.28097300000000003
建设 0.7892600000000001 0.20034000000000002 0.773672 0.45173800000000003 -0.048891000000000004 0.916402 -0.03209 -0.282941 -0.46912 0.330475 -0.203568 -0.355446 0.441792 0.014437 0.18823299999999998 0.725209 -0.845318 -0.45733 -1.118971 -0.483289 0.630259 0.208258 -0.715627 0.49275 1.031247 0.120946 0.6975180000000001 -0.78554 -0.547481 0.492655 0.249085 0.346508 -0.273335 -0.6087060000000001 -0.10817 0.647913 -0.05586699999999999 -0.21628899999999998 0.018765 0.5419189999999999 -0.288472 1.106694 -0.301894 -0.081999 -0.078536 -0.29199400000000003 -0.675366 -0.187377 -0.236069 -0.746312 -0.14323699999999998 0.001056 0.409378 -0.023735 -0.309837 -0.18787 -0.245187 -1.3418809999999999 0.214969 -0.234771 0.084213 -0.343578 -0.524505 0.53872 1.1143290000000001 -0.27839400000000003 0.23222800000000002 -0.077586 0.147254 -0.353657 0.42947700000000005 0.261191 0.37726 -0.518997 -0.49895200000000006 0.228533 -0.24426199999999998 -0.45064799999999994 0.386245 0.146782 -0.001846 0.06397 0.139058 0.187219 0.589051 0.736563 0.016212 -0.6966220000000001 -0.042903 -0.49313900000000005 -0.298863 0.161826 -0.0646 -0.353894 -0.770522 0.25452600000000003 0.401039 0.452305 0.547642
日 0.132046 -0.053434 -0.077264 0.174766 -0.493588 0.599219 -0.157139 0.02256 0.13991099999999998 0.05329 -0.556459 0.6915399999999999 0.641425 -0.36693400000000004 0.503071 0.436493 -0.301983 -0.061778999999999994 -0.155655 -0.242221 0.404489 -0.10768599999999999 -0.434144 0.32709 -0.283942 0.238608 0.038655 -0.14031 0.13591 -0.114149 0.565333 0.10810299999999999 0.026379000000000003 0.438407 -0.567177 -0.264295 0.13907 0.8678870000000001 0.35020500000000004 -0.340504 0.017147 0.9358209999999999 -0.09636900000000001 -0.761996 0.44879300000000005 0.7063159999999999 -0.27078800000000003 1.001585 -0.392218 -0.8021020000000001 -0.5852729999999999 -0.257644 0.231204 0.252004 0.314328 -0.29579099999999997 -0.191447 -0.44047200000000003 0.419459 0.234839 -0.19845 -0.32711999999999997 -0.035419 -0.36157100000000003 -5.5e-05 -0.132642 -0.7068369999999999 0.790697 -0.16736199999999998 -0.5548770000000001 -0.34786999999999996 -0.57711 -0.255417 0.41582700000000006 -0.084328 -1.069866 -1.186405 0.508192 -0.09693099999999999 0.107424 0.303271 -0.088078 0.07298400000000001 -0.261966 0.170086 0.910891 -0.9349139999999999 -0.691271 -0.12098800000000001 -1.199317 -0.247425 0.359267 -0.11816099999999999 0.132458 -0.30694299999999997 0.297608 -0.033363 0.14707699999999999 0.45133100000000004
） 0.510338 -0.06922400000000001 -0.212272 -0.28323899999999996 0.6500859999999999 1.1644079999999999 -0.256774 -0.12222000000000001 -0.147526 0.8543229999999999 0.25032600000000005 0.226514 0.13686800000000002 -0.16213 -0.649874 0.420781 -0.313954 0.006846 0.293589 -0.424256 0.47248199999999996 -0.6446569999999999 0.260546 -0.317608 -0.045843 -0.243725 0.307209 0.249011 -0.190565 0.229802 -0.319856 0.169623 0.19631400000000002 -0.294983 -0.642079 0.037277 0.13172799999999998 0.782349 0.38862800000000003 0.580192 0.480627 -0.212969 -0.755296 -0.556601 0.195708 -0.091623 -0.212252 0.49689700000000003 -0.337863 0.037265 0.301483 -0.7091850000000001 0.5717 0.267797 0.299192 0.572721 0.305252 -0.30289099999999997 0.520265 -0.545482 -0.626186 -0.417865 0.527341 -0.44078599999999996 0.48102 -0.27521799999999996 -0.759322 0.468344 0.398067 -0.191504 0.07121799999999999 -0.135257 0.247214 -0.025291 -0.544838 0.119781 -0.259054 0.913265 0.562084 0.69933 0.921686 0.555916 0.22192699999999999 -0.524936 0.263781 0.18468800000000002 -0.12135499999999999 -0.223527 -0.402318 -0.73927 -0.12463900000000001 0.026073000000000002 -0.273525 -0.666164 0.41837799999999997 0.22504899999999997 0.158402 0.073085 0.5210199999999999
经济 0.170768 0.219177 -0.134042 -0.273938 0.07548200000000001 0.321286 -0.23106 -0.321314 0.245905 0.33824099999999996 -0.350108 -0.114522 0.46296800000000005 -0.158004 0.132721 0.21434499999999998 -0.133935 0.17516600000000002 -1.05586 -0.364315 -0.075284 0.128113 -0.261472 0.049026 0.164555 -0.274927 0.6331359999999999 -0.208722 -0.066827 0.207671 0.296556 0.178421 0.420757 0.524709 -0.8353079999999999 -0.18951300000000001 0.080562 0.27405 -0.017724 0.279094 -0.20052 0.6766979999999999 -0.14881 -0.15504500000000002 0.036199 -0.37872100000000003 -0.168516 -0.32952 0.21653899999999998 -0.6603020000000001 -0.10177699999999999 -0.7653310000000001 0.676678 -0.013812999999999999 -0.171266 0.709383 -0.08830700000000001 -0.535698 1.359229 -0.744178 -0.201457 0.485608 -0.49343400000000004 -0.24053400000000003 0.7735989999999999 0.574365 -0.34896 0.925968 -0.48703500000000005 -0.207071 -0.311206 0.150222 0.8635440000000001 -0.104594 -0.212612 -0.20646799999999998 -0.475759 -0.340887 -0.055189 -0.612222 -0.7322350000000001 0.013272999999999998 0.166106 0.468551 1.000225 0.102406 -0.004253 -1.196677 -0.264953 -0.690247 0.418149 0.020555 0.16607 0.553254 -0.643898 -0.151542 -0.22621 -0.08042 -0.018982
要 0.119849 -0.00884 0.004529 -0.01026 0.448521 0.195848 -0.5473600000000001 0.540493 -0.046148 0.140398 -0.523699 -0.350047 -0.643196 0.049609 0.250485 -0.090456 -0.484518 -0.122768 -0.13109 -0.251596 -0.027562 -0.12752 -0.310295 0.347043 0.15347 -0.308091 -0.338708 -0.172292 0.004111999999999999 -0.056879 0.316542 0.243218 -0.778656 0.704378 -0.288674 0.085396 0.535163 0.18796 -0.214604 0.393031 -0.38118 0.24507800000000002 -0.959909 0.5019939999999999 -0.18348499999999998 0.010778 -0.134042 -0.48501400000000006 -0.050408999999999995 -0.276778 0.5294300000000001 0.545438 0.200765 0.517157 -0.859916 -0.05587 0.875132 0.069174 0.264913 -0.034025 -0.172227 -0.6871689999999999 -0.648375 0.372324 0.049957999999999995 -0.216162 -0.101793 0.5683159999999999 -0.7978149999999999 -0.373392 0.31392800000000004 -0.060476 -0.419153 0.19501500000000002 -1.019671 -0.505713 -0.153912 -0.18068800000000002 0.107205 0.03646 -0.261789 -0.622692 -0.166321 -0.152416 0.071812 -0.50116 -0.025685000000000003 -0.491475 0.613255 -0.775997 -0.021838999999999997 -0.078966 -0.175814 -0.494253 -0.303077 -0.26929899999999996 0.282463 0.8805870000000001 -0.039236
美国 0.394581 -0.1397 0.321727 0.178787 0.264202 -0.08028300000000001 -0.185377 0.47767200000000004 -0.5445800000000001 -0.10656800000000001 -0.633301 0.274845 0.62043 -0.077938 0.474732 0.403554 -0.326382 -0.037287 -0.057725 0.131955 0.602059 -0.197957 0.34194 0.255104 -0.20715799999999998 -0.238717 0.051325 -0.321272 0.597035 -0.126804 0.20773200000000003 0.691159 0.206974 0.5472319999999999 -0.210706 0.36277 0.24258000000000002 0.655764 0.6651630000000001 0.47571 0.204179 -0.034365 -0.09539700000000001 -0.587492 0.044208 -0.178851 -0.17583800000000002 -0.005914 -0.257196 -0.5176609999999999 -0.30927899999999997 -0.060342999999999994 -0.009843000000000001 -0.31459699999999996 -0.039751 0.409373 0.160351 -0.23326799999999998 0.579338 -0.124464 -0.204778 0.033145999999999995 -0.339348 -0.023844 0.6600520000000001 0.436821 -0.874268 0.23789200000000002 -0.308298 0.373231 0.069127 -0.019584999999999998 -0.227854 -0.033358 -0.29825300000000005 0.17366600000000001 0.23719 -0.06313300000000001 -0.01142 -0.50083 0.216038 -0.49483 -0.470634 -0.358786 0.083176 0.039005 0.502156 0.049905 0.265706 -0.619887 -0.30532800000000004 -0.069425 -0.315945 -0.404047 0.46520900000000004 0.312371 -0.586893 -0.049629 -0.200371
这 0.047505 -1.0021 -0.012267 0.17947000000000002 -0.078688 -0.132089 -0.48283000000000004 0.034304 0.304388 0.26647600000000005 0.394311 -0.379992 -0.368427 -0.05753099999999999 0.536238 0.302139 -0.6389729999999999 -0.425887 0.176303 0.312183 -0.526016 -0.081501 0.30342399999999997 0.318803 -0.081523 -0.17188900000000001 -0.013406999999999999 -0.603069 0.177824 0.5142939999999999 0.22216599999999997 -0.173061 0.287662 -0.055503 -0.36245 -0.435805 0.37438 0.20500100000000002 0.159676 -0.113916 0.149866 -0.116166 0.258716 -0.321842 -0.032843000000000004 -0.22678 -0.155074 -0.192024 0.16611700000000001 0.2505 -0.22138899999999997 0.256764 0.066996 0.358107 0.227435 -0.18129 -0.369983 -0.63615 0.5353319999999999 0.087726 -0.173869 0.506479 -0.08701 -0.056922 1.2975299999999999 -1.1104100000000001 -0.522832 0.188493 -0.34826799999999997 0.0492 -0.015403 0.136407 -0.268619 0.194653 -0.191421 -0.05890499999999999 -0.070301 0.014891999999999999 0.22834899999999997 -0.634057 0.33521799999999996 -0.293746 0.517829 -0.524964 -0.21885900000000003 -1.302805 -0.38711100000000004 -0.120226 -0.240404 -0.7351270000000001 -0.546786 0.11265399999999999 0.360634 -0.299035 0.727379 -0.069979 -0.176241 0.054985 0.333791
生产 0.628026 0.096182 0.827708 -0.068752 0.142791 -0.424997 -0.076807 -0.09643 -0.18641300000000002 -0.139482 -0.6148520000000001 -0.030708 -0.4812 0.079336 -0.089648 -0.14938099999999999 -0.406575 0.233107 -0.483879 -0.39214099999999996 0.677251 -0.189093 0.035858999999999995 0.62816 0.531015 0.5066229999999999 0.361356 -0.45029600000000003 0.165476 -0.419587 0.309456 -0.07489900000000001 -0.411221 0.211233 -0.755354 0.00545 0.12908499999999998 0.247572 0.714024 0.12036 0.276169 0.258883 -0.08456699999999999 -0.159672 -0.693166 0.022234999999999998 0.045183 -0.438183 -0.125226 0.046527 0.174442 -0.24443 0.464636 0.21057800000000002 -0.652542 0.8155979999999999 -0.01731 -0.513129 0.737924 -0.619899 -0.695656 0.518506 -0.575405 0.11285799999999999 0.257835 -0.318882 -0.005443 -0.281832 -1.114745 0.517134 -0.060811000000000004 0.055542999999999995 -0.452108 -0.113568 -0.447833 0.17661500000000002 -0.38600999999999996 0.008935 -0.28282399999999996 -0.203652 -0.378277 -0.020213 -0.515786 0.384454 0.900085 0.31055900000000003 0.055175999999999996 -0.366719 -0.06441000000000001 -0.43599 -0.006357 0.23866500000000002 -0.755437 0.13083499999999998 -0.67825 -0.261815 0.495192 0.553945 0.180591
与 0.048942 -0.157503 0.033070999999999996 0.8536530000000001 0.182795 -0.009294 -0.821558 0.616628 -0.759695 0.042092000000000004 -0.243402 0.06709 0.383096 -0.068941 -0.17233800000000002 0.273431 0.094479 -0.44524600000000003 -0.281007 -0.616638 0.36040900000000003 -0.067468 0.628896 0.790467 -0.791558 -0.375248 -0.140954 0.213469 0.27363000000000004 -0.18998900000000002 -0.329813 1.112479 0.332669 -0.720517 0.163775 0.248739 0.076968 0.23384899999999997 0.42757 0.029501 0.21707800000000002 0.47028100000000006 -0.413843 0.200383 -0.92211 -0.046837000000000004 -0.010216 -0.006648 -0.020225 0.310398 -0.061269000000000004 -0.109894 0.011264 -0.367897 0.12281900000000001 0.204625 1.3628209999999998 0.049694 1.388187 -0.232078 -0.198268 -0.488155 0.029876 -0.203072 -0.24957100000000002 -0.234055 -0.240988 0.060259 0.129483 -0.031501999999999995 -0.144979 -0.013994999999999999 -0.336144 0.018755 -0.27727199999999996 0.393529 -0.06442 -0.38059699999999996 -0.13633 -0.21368099999999998 -0.09135900000000001 -0.302381 -0.053477 0.582418 -0.097448 0.172688 0.286136 -0.13689300000000001 -0.147767 -0.817354 -0.358871 -0.142933 0.07347999999999999 -0.36539299999999997 0.324795 0.093958 0.078654 0.099875 0.05429
他 -6.7e-05 -0.274167 0.348067 0.21489899999999998 -0.391894 0.173982 -0.632077 0.7207180000000001 -0.510733 -0.044965 0.176791 -0.204023 -0.120946 0.014336000000000002 0.46143999999999996 0.25011500000000003 -0.320397 0.224025 0.090686 0.17999 0.009331 -0.354844 0.49618 0.408436 0.067322 -0.481407 -0.176948 -0.414642 0.791931 0.007826999999999999 -0.104111 0.23953200000000002 0.237183 -0.031997000000000005 0.173052 -0.319576 0.541583 0.157065 0.14491300000000001 0.366458 -0.139786 0.054065999999999996 -0.35783899999999996 0.174041 -0.009797 -0.558454 -0.36529 -0.31626 0.004605 -0.0179 0.174845 1.116637 -0.036025 -0.009728 -0.010688 -0.138247 -0.16231600000000002 -0.259075 -0.212772 0.247829 0.174271 -0.413117 -0.19664500000000001 -0.124446 -0.073422 -0.094211 -0.586477 0.23335100000000003 -0.081436 0.002248 -0.521967 0.373184 0.17463599999999999 -0.174927 0.317723 0.10491500000000001 0.089033 0.094201 0.592044 -0.23221599999999998 -0.29627600000000004 -0.17896099999999998 -0.217016 -0.12014000000000001 -0.126056 -0.814837 -0.8422799999999999 -0.29725999999999997 0.20583 -0.094795 0.135534 0.084024 -0.141434 -0.267169 -0.133663 -0.055099 -0.476911 -0.012853999999999999 -0.016971
地 0.12498599999999999 -0.33570700000000003 0.46498900000000004 -0.048748 -0.42111499999999996 -0.264468 -0.051637999999999996 1.09607 0.679272 -0.197221 -0.627166 -0.517953 0.390264 -0.27708299999999997 0.082476 0.402395 0.13889400000000002 0.061667999999999994 -0.49081400000000003 -0.209062 0.21204499999999998 -0.526021 0.270663 0.33202800000000005 -0.10625799999999999 -0.276291 0.56089 -0.257799 -0.630779 0.428138 0.46072700000000005 -0.390173 -0.348919 0.066419 -0.162374 0.221423 -0.402077 0.524523 0.243202 0.781511 0.35379499999999997 0.518269 -0.665421 -0.133979 -0.53843 0.38193 1.08228 -0.505955 0.040541 0.5769770000000001 -0.371606 0.352643 -0.104492 0.045331 0.667083 -0.5442100000000001 0.7247180000000001 -0.37601 -0.006437000000000001 0.207404 -0.189367 -0.8487870000000001 0.077503 0.162064 -0.312641 -0.354026 0.09927799999999999 0.643926 -0.674583 0.005742000000000001 -0.820883 -0.463217 0.154872 0.406105 -0.137222 -0.546995 0.381407 0.415546 -0.14685 -0.530464 -0.133633 -0.177955 -0.6172989999999999 -0.08354 1.031747 -0.9207120000000001 -0.199482 -0.173346 0.484321 -0.252535 -1.087976 0.230622 -0.665482 0.005832 0.15826300000000001 0.610982 -0.435425 0.945808 0.9842069999999999
就 0.063718 0.13476 0.21551900000000002 0.524112 -0.697136 -0.26888 -0.40323600000000004 0.23309899999999997 0.20184000000000002 -0.145072 -0.489151 -0.629077 0.172757 0.15199300000000002 -0.901891 0.455442 -0.38574899999999995 -0.32202800000000004 -0.121921 0.230798 0.018862 -0.24969499999999997 0.529555 0.48374799999999996 -0.060646000000000005 0.462351 0.22065300000000002 0.21033600000000002 0.501326 0.19783900000000001 0.595914 -0.051099 -0.13203099999999998 -0.041777999999999996 -0.292833 0.156281 0.045839 0.149811 0.166931 0.467599 -0.24811799999999998 -0.19609100000000002 -0.224257 -0.343823 0.5864229999999999 -0.242169 -0.303935 -0.301173 -0.456413 -0.083776 -0.355274 0.353583 0.258537 0.491065 -0.065071 0.064914 -0.07088799999999999 0.144779 0.392536 0.511071 -1.119258 -0.697823 -0.047505 0.188627 0.39158899999999996 -0.520359 0.119453 -0.16137 -0.181031 -0.495271 -0.5449579999999999 -0.285869 0.322685 0.450879 -0.256942 -0.46243500000000004 0.467062 0.43233900000000003 0.396633 -0.375692 -0.23644 -0.15174300000000002 0.147565 -0.424038 0.18383 -0.705051 -0.274615 -0.46048100000000003 -0.32452600000000004 -0.21324200000000001 0.27048 0.321755 0.235848 -0.095774 0.6433989999999999 -0.12709 0.014158 0.282596 -0.069735
个 0.416468 -0.00952 -0.32712199999999997 -0.311055 0.42621000000000003 -0.171005 0.118051 0.259502 0.12701099999999999 0.34774 -0.45726400000000006 -0.8194600000000001 0.582617 -0.177432 -0.46853999999999996 0.7795770000000001 -0.611861 0.73475 -0.19269 -0.009781 -0.037569 0.584113 -0.43121800000000005 0.341563 0.214198 -0.6997439999999999 -0.128374 -0.122429 -0.052030999999999994 -0.200573 -0.008372 -0.48748100000000005 -0.197893 0.104118 0.130517 1.218486 -0.473641 1.276801 -0.187751 0.286427 -0.035598000000000005 0.073273 -0.728518 0.6876369999999999 -0.3529 0.228929 -0.14670899999999998 -0.732146 0.114848 0.162714 -0.9015860000000001 -0.018394999999999998 -0.052711 -0.810229 -0.5302819999999999 -0.429129 -0.105198 -0.22431900000000002 -0.062193 0.48503999999999997 -0.42486199999999996 -0.172766 -0.11785 0.145651 0.21324099999999999 -0.5018279999999999 0.11829300000000001 0.44446499999999994 -0.624999 0.9275190000000001 0.100461 -0.49226000000000003 -0.641993 -0.236988 0.023693000000000002 0.246756 -0.110045 -0.803634 -0.262232 0.19725399999999998 0.538022 0.559316 0.089056 0.827335 -0.432658 -0.286688 -0.906077 -0.34423000000000004 -0.06517200000000001 -0.138401 0.596178 -0.261973 0.36467 -0.209313 -0.727035 -0.256496 -0.151948 -0.458366 -0.181819
企业 0.046863999999999996 0.40142 0.693592 -0.08315499999999999 0.6297159999999999 -0.223041 0.23142600000000002 -0.15019200000000002 -0.086572 0.446296 -0.377824 -0.12598299999999998 -0.789357 -0.46520900000000004 -0.8944219999999999 -0.304068 -0.224466 -0.253618 -0.616621 -0.8905139999999999 0.34720300000000004 -0.454903 0.387531 0.29839099999999996 -0.182674 0.468546 0.23993499999999998 0.052363 -0.17330299999999998 0.193623 -0.145767 0.24340900000000001 0.24701399999999998 0.296624 -1.029611 0.195985 -0.165579 0.323535 0.136262 -0.057430999999999996 -0.09212200000000001 0.44671099999999997 -0.23579699999999998 -0.071417 -0.15270999999999998 -0.536812 0.140908 -0.145454 0.14186400000000002 -0.635075 -0.110989 -0.166741 0.5103310000000001 0.030542000000000003 -0.357095 -0.17393599999999998 -0.687675 0.13685 0.49722700000000003 -0.41817 0.147248 -0.361008 -0.409785 -0.038797000000000005 -0.320225 -0.602954 -0.01799 -0.081196 -0.32577399999999995 -0.09946100000000001 0.48443100000000006 0.257295 0.413963 -0.407856 -0.510985 0.354522 0.428791 -0.33420300000000003 0.27226500000000003 0.327797 -0.282524 -0.014488 0.205815 1.1409770000000001 0.57262 -0.28944899999999996 0.028326999999999998 -0.693199 -0.009055 -0.184619 0.29462 0.33529000000000003 0.06034 -0.073893 -0.425379 0.025381 0.059927999999999995 0.617506 0.370604
； 0.189933 0.446687 -0.458054 0.20481 0.066755 0.257529 -0.008869 0.6495340000000001 -0.8396809999999999 0.319827 -0.164373 -0.269568 0.161243 -0.435095 -0.586391 0.173298 0.221275 0.062190999999999996 -0.311578 -0.117398 -0.143762 -0.468825 -0.047719 0.121623 -0.219151 -0.204151 -0.034972 -0.195164 0.11428699999999999 0.12878 -0.569928 0.312775 -0.119397 0.22361799999999998 -1.0433729999999999 0.119618 0.068402 0.657309 0.160999 1.288864 -0.270731 -0.139271 -0.867129 0.321918 -0.158089 0.042112000000000004 -0.6395890000000001 -0.454068 -0.663674 0.380409 0.27818899999999996 -0.174867 -0.304161 0.386253 0.313353 0.22961399999999998 -0.127349 -0.759736 -0.194236 -0.574176 0.148143 -0.12118499999999999 -0.016111 -0.298567 0.037659 -0.9185059999999999 -0.353013 0.41518900000000003 -0.357558 0.44080699999999995 -0.313514 0.329986 -0.245756 -0.43205600000000005 -0.040498 -0.5919439999999999 -0.535621 0.167992 0.081248 0.06706799999999999 0.345402 -0.562768 0.539417 -0.09829700000000001 0.035401 0.6113109999999999 0.278592 -0.073817 -0.306622 -0.470451 -0.636829 0.174227 -0.46703199999999995 -0.931953 -0.08091799999999999 -0.34187399999999996 0.21135199999999998 0.141953 0.093791
群众 -0.258947 -0.067977 1.239128 -0.014163 -0.110571 0.11568900000000001 0.47709799999999997 -0.188931 -0.008583 -0.823667 0.258182 0.150288 -0.518748 -0.237663 0.011518 0.48648800000000003 0.818286 -0.995777 -0.108696 0.06296900000000001 0.10873900000000002 -0.121671 0.046849 0.464197 -0.233048 -0.356962 -0.34284499999999996 0.228479 0.36689 -0.515342 -0.175273 0.545373 -0.350905 0.480946 -0.875086 0.108673 0.668608 0.417084 0.580728 0.343912 -0.20483600000000002 0.265974 -0.514075 0.133036 -0.168079 -0.420141 -0.320891 -0.476513 -0.681895 -0.024692 -0.023622999999999998 -0.121083 0.181347 -0.664516 -0.15982000000000002 0.18136 0.490159 -0.705839 0.303173 -0.224146 -0.074412 -0.573635 -1.2022899999999999 -0.113811 -0.35446 -0.160931 -0.169407 0.107369 -0.11305899999999999 -0.163001 -0.096204 0.231684 0.31451599999999996 0.147582 0.07433200000000001 0.026267000000000002 -0.178124 0.34799800000000003 -0.833988 0.463326 0.9869049999999999 0.7484810000000001 -0.45888999999999996 0.327952 0.147832 -0.41713100000000003 0.053646000000000006 -0.915307 -0.521247 0.033216 0.394086 0.041299 0.08835499999999999 -0.089314 -0.27944 0.005331 -0.072301 0.916265 -0.012981
日电 0.20486999999999997 -0.46136800000000006 -0.38404499999999997 -0.129984 -0.24205100000000002 0.709829 0.68158 0.128912 1.56182 0.559182 -1.3366870000000002 1.605958 0.745254 -0.7043229999999999 0.049169 0.322346 -0.897907 -0.465746 -0.35913 -0.081694 0.9383940000000001 -0.023384000000000002 -0.430588 -0.48561499999999996 -0.311556 0.1462 0.595493 0.166272 0.51517 0.549654 -0.053982 0.453502 -0.691296 0.072412 -1.3156649999999999 -0.265613 0.16413599999999998 0.674017 0.576743 0.32371500000000003 0.160301 0.160469 -0.756684 -0.8566290000000001 -0.022344 0.534854 -0.344517 0.36304000000000003 -1.00274 -0.400646 0.361729 -0.280246 0.30238400000000004 0.8956430000000001 0.20908600000000002 0.18049400000000002 -1.916216 -1.614493 0.574555 -0.6865100000000001 0.043401999999999996 -0.534353 -0.004193 -0.36798600000000004 1.245385 -0.38001599999999996 -1.5025600000000001 2.8027990000000003 -0.189505 0.744861 -0.48666000000000004 0.003474 -0.777091 0.618609 0.187599 -0.16162 -0.601669 1.680225 -1.256859 -0.193359 0.679083 0.3099 -0.17482999999999999 -1.370517 0.782446 0.9223299999999999 -0.369174 -0.762206 -0.063421 -1.5535709999999998 -0.578676 0.390346 -0.463978 -0.9977950000000001 0.094158 0.378804 -0.72134 -0.10729100000000001 0.29895
到 0.12532000000000001 0.13278199999999998 0.06427100000000001 0.16660899999999998 0.45973500000000006 -0.427141 0.10581099999999999 0.291106 -0.010064 -0.604884 -0.820701 -0.6685939999999999 0.412858 -0.5905090000000001 -0.059168 0.405982 0.071422 0.023051 -1.123729 -0.042657 -0.10204099999999999 -0.750074 0.46599799999999997 0.506471 -0.640368 0.036987 -0.34531100000000003 -0.433675 0.558673 0.097745 -0.33513699999999996 1.009009 -0.251051 -0.302614 -0.308151 0.41489899999999996 -0.031858 0.772378 0.233379 -0.22210500000000002 -0.46195299999999995 0.5340050000000001 -0.095042 0.32310500000000003 -0.360656 0.20316099999999998 -0.5074930000000001 -0.342805 -0.27668400000000004 -0.593831 0.547682 0.32357800000000003 0.125055 -0.065443 0.081215 0.539401 0.203729 0.642474 0.033856 0.503451 -0.500053 -0.739344 -0.829332 0.164734 -0.77915 -0.079318 -0.919724 -0.205798 -0.413455 -0.32255900000000004 -0.416979 -0.373866 -0.149126 0.259795 0.739858 -0.393163 0.415067 0.618291 0.669277 -0.111746 -0.428617 -0.312156 -0.013591999999999998 -0.18648800000000001 0.081875 -0.067149 0.654191 -0.136025 0.10820999999999999 -0.250137 -0.293564 0.404449 0.03753 -0.33569699999999997 -0.547219 0.029301999999999998 -0.625641 0.474174 0.21731199999999998
人 0.843843 -0.02324 0.190926 -0.580346 0.26525 -0.059105 -0.259479 0.24036 0.09995 -0.5140680000000001 0.364508 0.260852 0.270543 0.17357899999999998 0.183129 -0.285804 -0.055215999999999994 0.11783800000000001 -0.6529020000000001 0.073973 -0.062916 0.142968 0.06844299999999999 0.174573 -0.39435 -0.103876 -0.523235 0.7506550000000001 0.5154489999999999 -0.260356 -0.039954 0.08896699999999999 0.41773699999999997 -0.323101 0.48478699999999997 0.177384 0.270082 0.30238200000000004 -0.181713 1.019433 -0.939802 0.027385000000000003 -0.992859 -0.07284600000000001 0.462563 0.045582 -0.384527 0.077833 -0.07855 -0.21587699999999999 0.266837 0.122 0.369541 0.141533 0.321644 -0.637048 0.14494 0.068575 -0.402388 -0.036422 -0.106904 -0.550427 -0.38160700000000003 0.19303 -0.8969860000000001 -0.5983470000000001 -0.8724639999999999 0.20655300000000001 -0.35238800000000003 0.450618 -0.30955 -0.202806 0.753173 0.02172 0.127828 -0.108115 -0.07822899999999999 -0.248054 0.171066 -0.554886 -0.046354 0.634737 -0.716078 0.656353 -0.42603 -0.183864 -0.466912 -0.368035 -0.271414 0.03924 0.259211 0.028988999999999997 0.065815 0.018443 -0.288409 -0.22916599999999998 0.256279 0.246741 0.32671
不 0.122272 -0.672058 -0.5403979999999999 0.729246 -0.40127399999999996 0.101961 0.08488 0.9783950000000001 -0.038174 0.155573 -0.079661 0.062803 -0.8912329999999999 -0.286403 0.537064 0.125057 -0.190159 0.228629 -0.21702800000000003 -0.285406 -0.21085 -0.9161969999999999 0.294064 0.30609000000000003 0.46645299999999995 0.338382 0.126462 -0.053466999999999994 0.38485 0.114254 0.11511099999999999 -0.065697 0.361633 0.076136 0.000606 0.582804 -0.057297 0.0038020000000000003 -0.252188 0.85935 -0.23881100000000002 0.12131099999999999 -0.6154649999999999 -0.002375 0.68434 -0.45235699999999995 -0.015390000000000001 -0.623394 -0.300729 -0.3067 0.44473100000000004 -0.104921 -0.005418 -0.415166 -0.167244 -0.107672 0.4682 0.725329 0.113728 -0.26615 -0.465238 -0.5724199999999999 -0.036193 -0.338289 0.237661 -0.345161 -0.056105999999999996 0.378537 -0.358198 0.564592 0.098986 -0.161075 -0.005233 0.147535 -0.811559 0.197714 0.44181899999999996 -0.13406500000000002 0.048076999999999995 0.281092 0.21289 0.6291770000000001 0.08619600000000001 0.323231 -0.336591 -0.551873 -0.003111 0.035026 -0.365056 -0.61282 -0.016724 -0.26067199999999996 -0.039945 -0.241731 -0.802279 -0.20883000000000002 0.133929 0.348668 -0.329807
没有 -0.559818 -0.317289 0.58118 0.182867 -0.806074 0.218225 -0.510278 0.626546 0.079924 0.143617 -0.375609 -0.82962 -0.169233 0.5503 0.260704 0.369334 -0.395149 0.209418 0.020596 0.273766 0.049325 -0.339125 -0.12136400000000001 -0.059441999999999995 -0.960306 0.160942 0.099258 -0.241168 0.506023 -0.335161 0.143707 0.26762600000000003 0.24508200000000002 0.579791 -0.572889 0.795362 -0.35428000000000004 -0.12094400000000001 -0.598811 0.927589 0.448603 0.240948 -0.437774 0.223625 0.31141399999999997 -0.264885 -0.40479499999999996 -0.407083 -0.571168 0.09136799999999999 0.405023 0.005855 0.182161 0.040606 -0.047527 0.005613 0.8361870000000001 0.390896 -0.142732 -0.299538 -0.056902999999999995 0.208959 0.531411 0.092477 0.06213200000000001 -0.345056 0.21109499999999998 0.932193 -0.0023079999999999997 -0.21346700000000002 0.302031 0.136649 -0.24930300000000002 -0.46675500000000003 -1.1259700000000001 0.77777 -0.566233 0.8992889999999999 0.492979 -0.31057399999999996 0.446326 0.09141 -0.023336000000000003 0.252845 -0.606874 -0.43389799999999995 0.183579 -0.54368 -0.152058 -0.879899 0.48390200000000005 0.079826 0.125433 -0.21285900000000002 -0.43354 -0.141429 0.003454 0.46575500000000003 -0.542281
北京 0.28879699999999997 0.420704 -0.1279 -0.928875 -0.23869 -0.420807 0.7240949999999999 0.274831 0.112804 0.167071 0.306608 -0.163852 0.621877 -0.26263800000000004 0.624104 0.99751 -0.266205 -0.050044 -0.735599 -0.587058 -0.118289 -0.835475 0.617896 0.315868 0.067972 -0.38464499999999996 0.77981 -1.41819 0.8903700000000001 0.707819 0.053193 0.958525 0.114722 -0.108046 -0.7219800000000001 0.813304 0.48402399999999995 0.268642 0.828634 -0.564008 0.378745 0.668393 -0.385664 0.020408000000000003 0.068656 -0.279359 0.31347800000000003 -0.00389 -0.48879799999999995 -0.9378110000000001 0.336634 0.10531900000000001 -0.23280399999999998 0.534566 -0.163768 -0.309539 0.123668 -0.880107 0.552045 -0.030170999999999996 -0.656127 0.42477200000000004 -0.46908299999999997 -0.10628599999999999 0.301034 -0.696681 -0.339478 0.035469 -0.270187 -0.655976 -0.373342 -0.22223400000000001 -0.6909569999999999 -0.194626 -0.268167 0.287443 -0.204491 1.037721 -0.793259 0.070574 0.522026 0.35403 -0.007853 0.143311 0.352392 0.512275 0.38534 0.290443 -0.129578 -1.155524 -0.306621 -0.744183 0.492914 0.142963 -1.025606 -0.29783000000000004 -0.17713900000000002 0.25324 0.163695
我国 0.41177700000000006 -0.12253800000000001 0.698955 -0.156841 0.616797 -0.12618800000000002 -0.09695 0.395543 -0.030636 -0.14145 -0.190126 -0.118033 0.729635 -0.12753699999999998 0.29592399999999996 0.9247219999999999 -0.364948 0.123945 0.283659 0.13660999999999998 0.583368 -0.9787879999999999 0.408339 0.723364 0.25764699999999996 0.130722 -0.223467 -0.6805140000000001 0.804427 -0.43329700000000004 0.535853 0.44385699999999995 0.21967899999999999 -0.054661 -0.725079 0.459833 0.47858999999999996 -0.024522 -0.017988999999999998 -0.512174 0.018798 0.67609 0.617937 -0.6448520000000001 -0.629703 -1.000643 -0.373751 -0.352429 -0.245306 -0.362001 0.87997 0.295333 -0.346117 0.298831 0.592314 0.372214 -0.57026 -0.5377460000000001 0.337625 -0.329755 -0.8679690000000001 -0.128134 -0.21944 0.392124 0.539942 -0.20579899999999998 -0.011929 0.693198 -0.8616450000000001 -0.11408399999999999 0.366 0.369153 -0.6121270000000001 0.404645 -0.25813400000000003 0.058583 0.048487999999999996 0.5705210000000001 -0.635426 -0.178036 0.386352 -0.19861700000000002 -0.191951 -0.28538600000000003 -0.072501 0.026489999999999996 -0.514508 0.39162600000000003 0.7310409999999999 -1.109168 -0.27157600000000004 0.063474 -0.26764499999999997 -0.214265 0.152685 0.78445 -0.06237 0.42277299999999995 0.381384
多 0.24547800000000003 -1.304162 0.106019 0.140229 0.634001 0.242166 -0.101672 0.181831 0.55534 -0.404389 0.12459400000000001 -0.458086 0.054462 -1.248509 0.417962 0.759683 -0.006822 -0.355385 0.238628 -0.320761 0.463228 0.210204 -0.254812 0.393386 0.190314 -0.607528 0.191944 0.214398 0.427846 -0.405029 -0.13281700000000002 -0.075057 0.585338 0.037406 -0.8975690000000001 0.557354 -0.252996 0.90559 -0.22485100000000002 0.169284 -0.269034 0.211873 0.167804 -0.192655 -0.09079 0.029936 0.086579 -0.7999649999999999 0.345169 0.527187 -0.482671 -0.111873 -0.242779 -0.030187000000000002 0.347595 -0.25314000000000003 -0.549864 -0.471408 -0.338016 -0.007043000000000001 0.086637 0.20682199999999998 -0.148857 0.41859399999999997 -0.270373 -0.716622 -0.6836949999999999 -0.158405 -0.20856599999999997 -0.399466 0.27291 -0.055002999999999996 0.5465939999999999 0.253499 -0.21047800000000003 -0.066964 -0.241429 0.165734 0.651575 0.24710900000000002 1.20389 0.176862 -0.565856 0.26463000000000003 0.391327 -0.404154 -0.742363 -0.075561 -0.028211 0.153142 0.424904 0.41247 -0.195711 -0.547212 -0.193304 -0.193045 -0.75188 0.20655 0.451776
《 0.522409 -0.6651229999999999 -0.30242199999999997 0.15476099999999998 -0.409083 0.525423 -0.148546 -0.132972 -0.984477 -0.271546 -0.296247 0.20444400000000001 -0.575652 -0.518696 -0.39555799999999997 0.88385 -0.48618 0.6987479999999999 -0.140873 -0.430679 -0.176951 -0.784346 0.019565 -0.26702600000000004 -0.754844 0.343736 -0.48682 -0.441558 0.542613 -0.075179 0.184358 0.66104 -0.9209379999999999 0.02044 -0.26454 0.319221 0.05421 -0.219435 -0.18373599999999998 0.808301 -0.31545300000000004 -0.398719 -0.042307 0.138205 0.438283 -0.519363 -0.15398699999999999 0.449169 0.044175 -0.288207 -0.16555599999999998 -0.092459 -0.533443 0.090528 0.709492 0.31046999999999997 -0.230737 -0.145755 -0.083763 -0.14693699999999998 0.032371 -0.666851 -0.06855800000000001 -0.22804699999999997 0.886871 -0.6097560000000001 0.31648899999999996 0.350281 0.278427 0.089701 -0.411455 -0.20594099999999999 -0.33264699999999997 0.14455 -0.618788 0.50516 -0.331715 0.2871 -0.22261999999999998 -0.301359 -0.428075 -0.126472 0.394012 0.653331 -0.764093 0.7619060000000001 0.628159 0.318729 -0.518885 -1.215832 -0.494357 -0.335192 -0.449975 -0.766207 -0.113329 0.465008 -0.554755 0.477872 0.356577
将 0.44925600000000004 -0.068192 0.023313 0.23704899999999998 -0.027933999999999997 -0.368726 -0.039546 0.832578 0.173648 0.36894699999999997 -0.378896 -0.335045 0.606801 -0.033306 -0.272011 -0.6212810000000001 0.307656 -0.162951 -0.619221 0.170404 0.505372 -0.792692 -0.35535100000000003 0.804128 -0.25597600000000004 0.21424200000000002 0.164745 -0.20955500000000002 0.24615700000000001 0.35122 0.5647949999999999 0.7420720000000001 -0.251739 0.321349 0.462409 0.320826 -0.11930999999999999 0.7330939999999999 -0.02528 -0.380183 0.00893 0.902043 -0.8 -0.48073699999999997 -0.138595 -0.298338 0.3074 -0.013996999999999999 0.390519 -0.8399690000000001 0.059802999999999995 0.442673 -0.250772 0.7334729999999999 -0.257704 -0.004509 0.860491 -0.074287 -0.053135 0.333102 -0.251756 0.187696 -0.714853 0.09205 0.536925 -0.544991 -0.06708 0.165413 -1.135365 -0.259929 0.19200899999999999 0.35203 -0.139545 -0.6538689999999999 -0.258679 -0.283578 0.020287 0.572145 0.44171099999999996 -0.23434699999999997 0.029867 -0.24168699999999999 -0.397568 -0.39369899999999997 -0.278215 -0.48734799999999995 -0.516813 -0.408577 0.117174 0.478278 -0.5097689999999999 -0.24701900000000002 0.19024000000000002 -0.364059 0.453771 -0.243575 0.37251100000000004 -0.162332 0.42603599999999997
说 0.24602399999999996 -0.267339 0.744691 0.48012200000000005 -0.619387 0.329348 -0.41818299999999997 0.656583 0.34419299999999997 -0.105958 -0.003275 0.521944 0.642748 0.5392640000000001 -0.039109 0.455847 0.161118 0.177214 -0.56767 -0.186136 -0.7275739999999999 -0.24653699999999998 0.08799900000000001 0.191877 0.318942 0.457107 0.126063 -0.242139 0.7565270000000001 0.262374 0.5490970000000001 0.248705 0.709801 0.164799 0.035671 0.1233 0.947257 0.341403 -0.35644699999999996 0.6248020000000001 0.771027 0.283867 -0.029254000000000002 0.188966 0.12554 0.13464500000000001 0.76769 0.10806600000000001 0.37199099999999996 0.272982 0.746252 0.23407399999999998 0.844008 0.10816300000000001 0.530758 0.64795 -0.117547 0.144894 0.5225770000000001 -0.193072 -0.328982 -0.182311 0.774116 0.43805299999999997 -0.184252 0.066286 0.378703 0.634009 -0.09488400000000001 -0.733707 -0.23093000000000002 -0.305697 0.226965 -0.141562 0.35636799999999996 0.129306 -0.6109829999999999 -0.685077 0.293772 -0.090896 0.10848800000000001 -0.173478 -0.285298 -0.710268 0.21151199999999998 -0.587494 -0.5935239999999999 -0.259546 -0.02005 0.0061200000000000004 -0.251474 -0.711617 -0.32004699999999997 -1.069187 -0.229514 0.103254 0.066651 0.505779 -0.286156
》 0.808167 -0.998195 -0.139103 -0.076188 -0.12695499999999998 0.8683360000000001 -0.064803 0.093821 -0.7385149999999999 0.101406 -0.152725 0.254108 -0.781274 -0.780275 -0.15006 0.744609 -0.207994 0.693342 -0.25662199999999996 -0.26195 0.078684 -0.540512 -0.220439 -0.083108 -0.5818260000000001 0.216169 -0.057084 -0.366564 0.34730300000000003 0.093211 0.083159 0.618065 -0.8579680000000001 -0.136771 -0.385243 0.303302 -0.07204400000000001 0.656857 0.334696 0.500877 -0.154226 -0.6086689999999999 -0.507732 0.044133 0.023068 -0.776763 -0.004412 0.251269 0.743071 -0.631818 -0.02541 0.296941 -0.425364 0.6884979999999999 0.9739389999999999 0.459867 0.13129100000000002 -0.027578 0.146772 -0.21646500000000002 -0.09366000000000001 -0.581806 0.276938 -0.014509000000000001 0.849809 -0.8241069999999999 0.42412799999999995 0.11510899999999999 0.275113 -0.118906 -0.299047 -0.384477 -0.26056799999999997 0.162913 -0.252171 -0.110871 -0.043352 0.575579 0.161994 0.356394 0.042193 0.54652 0.51503 0.582763 -0.855713 0.487442 0.353331 0.275834 -0.5338069999999999 -0.613484 -0.095554 -0.255294 -0.730024 -0.8372620000000001 -0.060034000000000004 0.57933 -0.776829 0.130484 0.176766
自己 0.2186 -0.330146 0.498547 -0.517137 -0.149729 0.23698400000000003 0.185757 0.480049 -0.545812 0.360175 0.13185 0.474596 -0.33676300000000003 -0.100876 0.033225 0.085842 -0.51432 -0.016572999999999997 -0.441724 -0.402897 0.042464 -0.551825 1.393358 0.57431 -0.064191 -0.10560499999999999 -0.103621 -0.593363 0.53666 -0.19455699999999998 -0.099851 0.533929 -0.9184049999999999 -0.600755 -0.293058 0.412059 0.90354 0.9837799999999999 0.085265 0.096471 -0.095332 0.620375 -0.125031 -0.027967000000000002 -0.004808 -0.355163 -0.9585940000000001 -0.489624 -0.282195 0.251994 0.31926 1.125433 0.35334699999999997 0.24381599999999998 -0.079523 -0.568291 0.117127 -0.6182380000000001 0.065939 -0.171249 -0.36184099999999997 0.21996 -0.15906800000000001 0.273847 -0.24093 -0.073116 -0.123333 0.546521 0.065565 0.31605300000000003 -0.10697000000000001 -0.173029 0.056759000000000004 -0.30841 -0.451592 0.410829 -0.213077 -0.38964499999999996 0.33416 -0.29831199999999997 -0.407894 -0.517061 -0.012791 0.015924 0.21193499999999998 -0.9375899999999999 -0.74302 0.37258600000000003 -0.666167 -0.201181 0.270054 0.14752200000000001 -0.239024 -0.36853400000000003 0.016413 -0.089933 0.339625 0.43516099999999996 -0.496121
把 0.237801 -0.094234 0.552186 0.523859 0.16877 -0.341505 -0.17188299999999998 0.344812 -0.669339 0.151022 -0.295527 -0.030927 -0.25450500000000004 -0.07181799999999999 0.000245 -0.359946 0.003921 0.17610599999999998 -0.7068180000000001 -0.07974400000000001 0.6665949999999999 -0.608542 0.5295529999999999 0.802772 -0.572593 0.21088600000000002 -0.285934 -0.22469099999999997 0.366263 -0.028581 0.048585 0.43466000000000005 -0.44904399999999994 0.29664 0.277102 0.433093 0.215779 0.7973060000000001 -0.044347000000000004 0.655036 0.279798 0.8893340000000001 -0.43598100000000006 -0.072136 -0.394637 -0.049529000000000004 -0.291017 -0.219094 0.109463 -0.194517 0.32556799999999997 -0.235422 0.09449099999999999 0.278656 -0.037776 -0.46578100000000006 0.5160710000000001 -0.372205 0.7350770000000001 0.161919 -0.176198 -0.167993 -0.080305 -0.014791 -0.265992 -0.948258 -0.044134 0.280231 -0.57536 -0.061714 -0.50959 0.324024 -0.063239 -0.359304 -0.124598 -0.067468 0.46046400000000004 0.058047 0.231016 -0.10348800000000001 0.079938 -0.234442 -0.21410300000000002 0.047978 0.151599 -0.520058 -0.9049530000000001 -0.580611 0.5369649999999999 0.107552 -0.37905 0.053097000000000005 -0.41747399999999996 -0.7372609999999999 0.48907399999999995 -0.26960500000000004 0.295117 -0.061751 0.47707700000000003
都 -0.068112 0.070487 0.6600520000000001 -0.02282 -0.549427 -0.015697 -0.784093 0.284771 0.818994 0.30656500000000003 -0.354723 -0.409174 0.216383 0.27455300000000005 -0.41401899999999997 0.423921 -0.738695 -0.47537799999999997 0.569264 0.544817 -0.034614 -0.5349470000000001 0.35825100000000004 0.272936 -0.035913 0.068483 0.006094 -0.27368600000000004 0.015859 0.008221 0.262413 0.051098000000000005 0.33776300000000004 0.359795 0.066121 -0.148061 0.364358 0.470865 0.064927 0.324494 0.10279 0.23806100000000002 -0.333945 -0.243376 0.281252 -0.17585399999999998 -0.092013 -0.061894000000000005 -0.13866099999999998 -0.314392 0.046589 0.452016 -0.266489 0.146241 -0.572416 0.30719 0.081765 -0.042462 -0.511123 0.048001 -0.936161 -0.21665 -0.292094 0.05279400000000001 0.405647 -0.643462 0.354067 0.474438 -1.03555 -0.21034699999999998 -0.127492 -0.35701 -0.11187899999999999 0.169553 -0.200941 -0.802236 0.15767 0.20397300000000002 0.442407 0.074744 -0.315577 0.43025 0.22098299999999998 -0.015194 -0.139639 -0.12598399999999998 -0.140933 -0.295509 0.201048 -0.388183 0.26138 0.269592 -0.575654 0.0429 0.682862 -0.12088299999999999 0.512699 0.294516 0.526101
以 0.462954 0.40962200000000004 0.440445 0.93201 0.178636 0.23170100000000002 -0.11361800000000001 1.00501 0.037775 0.26067399999999996 -0.051057 0.231471 0.728431 -0.138622 -0.279358 0.6593180000000001 -0.24509299999999998 0.086629 -0.7394890000000001 0.118065 0.42516400000000004 -1.045926 0.056226 0.786842 0.439395 -0.481828 -0.5573899999999999 -0.136648 0.34265500000000004 -0.154826 0.14141800000000002 0.846292 -0.044554 -0.1432 0.368588 0.753069 -0.167189 -0.479525 0.42730500000000005 0.050181 0.141122 0.533654 0.20306300000000002 -0.357621 -0.32243 -0.645278 -0.618698 0.074786 -0.243288 0.037453 0.486703 0.394137 -0.148457 0.302728 -0.542924 -0.093264 0.323198 -0.376837 0.984988 0.106128 0.216135 -0.125479 -0.488137 -0.375172 -0.143045 -0.775945 -0.674883 0.396206 -0.297955 0.349692 -0.317845 0.132672 -0.2 -0.056978999999999995 -0.118927 -1.153573 0.096201 0.512904 0.125863 -0.235368 -0.183538 -0.34903 -0.08340700000000001 -0.207064 -0.33297 -0.311151 -0.5529350000000001 -0.549838 0.431076 -0.24235 -0.409711 0.234104 -0.155538 -0.11475 -0.04807 -0.157021 -0.174318 0.429982 -0.010920000000000001
这个 0.49192299999999994 -0.692454 0.525573 0.166971 0.059046 -0.062565 -0.583163 -0.09246599999999999 -0.057087 -0.467291 0.09764500000000001 -1.042163 0.123048 0.320912 -0.014161000000000002 0.673955 -0.687433 0.62525 -0.008537999999999999 -0.149056 -0.173121 -0.6845979999999999 0.506263 0.50674 0.217966 -0.692685 0.036991 -0.7291449999999999 0.22857600000000003 0.047887 -0.03826 0.490675 -0.539894 0.5273909999999999 -0.095367 -0.06271399999999999 -0.028052999999999998 0.41172600000000004 0.356365 0.22444099999999997 0.44690100000000005 -0.021784 0.072715 -0.326102 0.169391 -0.5228970000000001 -0.163966 -0.6205069999999999 0.157053 0.210254 -0.42718500000000004 -0.099297 0.07537100000000001 -0.129165 0.326446 -0.332004 -0.257679 -0.330972 0.09135399999999999 0.131188 -0.46774099999999996 0.586392 -0.38909299999999997 0.13206800000000002 0.554656 -0.444607 -0.669552 0.141703 0.143718 0.463188 0.016205 -0.6404529999999999 -0.571099 -0.399937 -0.24953000000000003 0.570488 0.016986 -0.072913 0.49490200000000006 -0.274146 0.330339 -0.16323800000000002 0.255606 0.133768 0.345337 -1.421632 -0.17821800000000002 0.293758 -0.160419 -0.027899 0.74134 -0.178501 0.19894900000000001 0.012519 -0.094842 -0.793038 -0.09161699999999999 -0.144647 0.237486
从 0.40642399999999995 -0.06976 -0.049208 0.940608 0.691679 -0.709569 -0.5028050000000001 0.139997 0.223753 -0.500333 -0.664132 -0.280306 0.058899 -0.563186 0.132458 0.287472 -0.10276400000000001 -0.21801900000000002 0.064873 -0.017817 -0.478687 -0.535567 -0.557295 0.290051 -0.645083 -0.380722 0.495587 -0.401035 0.25898499999999997 0.314905 0.285641 0.682248 0.159841 0.5462239999999999 0.328822 0.20504699999999998 0.34861 0.6848350000000001 0.35559 0.070654 0.19359500000000002 0.16708 0.034755 0.33043 -0.093426 -0.077948 -0.365077 0.189754 0.13939100000000001 -0.036511 0.42391899999999993 0.11521400000000001 0.6556350000000001 0.343219 0.087128 0.428536 0.312606 -0.522393 0.07749600000000001 -0.074534 -0.6431 0.129974 -0.160205 0.074601 -0.295078 -0.47107200000000005 -0.576719 0.392729 -0.370122 0.051973 -0.44727100000000003 -0.26212199999999997 -0.32970700000000003 -0.541021 0.078355 -0.170061 -0.194366 -0.020666999999999998 0.522365 -0.116123 -0.286885 0.5636359999999999 0.14113900000000001 0.390604 0.05826900000000001 -0.678705 0.314227 -0.45121300000000003 0.12169 -0.302079 -0.726912 0.63225 0.318046 0.033938 -0.396828 0.32105900000000004 0.034352 0.8827290000000001 0.635667
我 0.06591699999999999 -0.0814 0.280149 -0.073771 -0.20076 0.170718 -0.337271 0.54986 -0.29826199999999997 0.225777 0.1066 -0.029057999999999997 0.18828499999999998 -0.031434 0.588783 0.256484 -0.880482 0.11136800000000001 0.458653 0.434579 -0.186898 -0.5764699999999999 0.616915 0.521596 0.044999000000000004 -0.241098 -0.23028600000000002 -0.50948 0.527454 0.0034170000000000003 0.098399 0.0021219999999999998 -0.122918 -0.329974 -0.506231 -0.08389500000000001 0.367162 0.021244 0.18069000000000002 0.171772 -0.292794 0.315258 -0.254242 -0.43088000000000004 -0.45360600000000006 -0.697253 -0.6215350000000001 0.005711 0.241087 -0.05394500000000001 0.290566 0.824543 -0.328154 -0.087177 0.173879 -0.134554 -0.173542 -0.243191 0.055089 0.404605 -0.664253 -0.618795 0.012978 -0.230954 -0.348853 0.029209 -0.558733 0.243017 -0.119779 -0.002882 -0.516357 0.35373000000000004 0.047963 0.45067299999999993 0.06461499999999999 0.24542399999999998 0.158328 -0.335662 0.117191 -0.254861 -0.095199 0.358277 0.22741 0.118275 -0.11746300000000001 -0.403828 -0.696534 -0.438266 0.13412000000000002 -0.560477 0.050433 0.45637 -0.159701 0.18316 0.14424700000000001 0.28341900000000003 -0.692455 0.32113 -0.19641
全国 0.579442 -0.193869 0.39106199999999997 0.04467 0.047123000000000005 -0.275306 -0.263231 -0.533273 -0.558621 -0.10722000000000001 -0.124577 0.427658 0.371359 0.143553 -0.062558 0.904335 0.073904 0.077925 0.067139 -0.17408099999999999 0.57682 -0.394914 -0.299331 0.24654600000000002 -0.393732 0.292403 -0.089903 -0.41904600000000003 0.324373 0.18097 0.6065 0.653515 0.046827 0.57011 -0.617462 0.327565 0.459585 0.030873 0.196993 0.274388 0.608417 0.594183 -0.08117200000000001 -0.863165 -0.350069 -0.7805380000000001 -0.30503600000000003 0.097992 -0.29493800000000003 0.320369 -0.445842 -0.683603 -0.536828 0.253404 -0.20798699999999998 -0.076641 0.535701 0.304491 -0.5314909999999999 -0.277704 0.044377 -0.10895999999999999 -0.38613000000000003 0.136629 0.01729 -0.12582100000000002 0.178231 0.481367 -0.015375 -0.305212 0.026432999999999998 0.135597 -0.28686300000000003 0.08351900000000001 -0.10455999999999999 -0.018313 0.367664 0.304215 -0.542901 0.661402 -0.368871 -0.497831 -0.609758 -0.061198 -0.24418299999999998 -0.19885999999999998 0.096589 0.45391800000000004 0.8072010000000001 -0.6256 -0.353245 -0.200852 0.11102100000000001 -0.772867 -0.9518719999999999 0.045152 -0.5279229999999999 0.113639 0.521343
—— 0.23839699999999997 -0.068099 -0.556515 0.618554 0.291605 0.289489 -0.052542 0.256315 -0.554712 0.81643 0.184282 -0.049248 -0.424821 -0.360683 0.0442 0.411782 0.243444 0.035447 -0.048561 0.011484000000000001 -0.059821000000000006 -0.1998 0.552817 -0.22514 -0.364913 -0.084391 -0.460239 -0.611974 -0.07196 0.45225600000000005 -0.024429 0.356656 -0.23585799999999998 0.37287 -0.8471290000000001 0.120272 0.042724 0.8265450000000001 0.372504 0.498467 0.20874099999999998 -0.4948 -0.392262 -0.522408 0.272314 -0.029502999999999998 -1.04664 -0.053863 -0.297792 0.47025900000000004 0.43035500000000004 -0.6230289999999999 0.057 0.02239 -0.065813 0.29030100000000003 0.601122 -0.8798870000000001 0.208985 -0.435042 0.104304 -0.17515 0.604716 0.034567 0.07001399999999999 -0.812239 -0.06940700000000001 0.365294 -0.46816899999999995 -0.554075 -0.043976 0.021197 -0.761263 -0.829735 0.534466 0.24418099999999998 -0.614761 -0.056623 -0.252254 0.09313400000000001 0.073437 -0.511159 0.23500700000000002 0.155591 -0.10728499999999999 0.437163 0.169752 -0.042822000000000006 0.211533 -1.012065 -0.913954 -0.34078800000000004 -0.26789 -0.243025 -0.23083299999999998 -0.022318 -0.911839 -0.45277399999999995 -0.023863
两 -0.176978 -0.9779610000000001 -0.162895 -0.37957199999999996 -0.044733999999999996 -0.259936 -0.042032 0.212885 0.096778 0.60451 -0.297476 -0.42206099999999996 0.486208 -0.204548 0.197676 0.406169 -0.19614600000000001 -0.039402 0.5644399999999999 0.062788 -0.368322 0.6094390000000001 0.201319 0.19350699999999998 0.46564700000000003 -0.279037 0.0474 -0.729664 -0.171513 -0.324467 0.550081 0.114846 0.369679 -0.48246400000000006 0.12035599999999999 0.376338 0.112696 0.5898329999999999 0.047256 -0.470703 0.338018 -0.27353099999999997 0.789409 0.46578800000000004 -0.479342 -0.067229 -0.250554 -0.078243 0.5847359999999999 -0.505041 -0.409224 0.066691 -0.375705 -0.546613 0.265013 -0.305812 -0.142973 -0.5751970000000001 0.169022 0.8288700000000001 -0.243995 0.011829000000000001 -0.424516 -0.079998 0.787121 -0.34171399999999996 0.106218 0.3792 -0.6320359999999999 0.158067 0.422238 -0.012033 -0.366211 -0.24996999999999997 0.016091 -0.177763 -0.5150779999999999 -0.388598 -0.10261700000000001 0.170723 0.23931599999999997 0.41521099999999994 1.009198 0.38576900000000003 -0.003708 -0.34679699999999997 -0.8982629999999999 -0.311661 0.468578 -0.559782 -0.039169999999999996 -0.3761 0.274273 -0.19528199999999998 0.7691100000000001 -0.127446 -0.502792 -0.108492 -0.047663
同志 -0.198506 0.385492 0.296157 -0.145287 -0.30275100000000005 0.357713 -0.81994 0.000729 -0.305002 -0.519637 0.599511 -0.393903 0.38119000000000003 -0.348787 -0.423937 -0.186947 0.015489 -0.433075 -0.114693 0.43062399999999995 0.050578 -0.208075 -0.692524 0.906234 -0.016108 -0.584069 -0.599711 -0.087845 0.427913 0.633219 0.086989 -0.0061530000000000005 0.9482950000000001 -0.383859 -0.09882200000000001 0.8340790000000001 -0.198425 0.06703300000000001 0.041538 0.9879950000000001 -0.17388399999999998 0.697246 -0.41975500000000004 0.038369 -0.023434 0.140941 -0.302675 0.7479520000000001 -0.076534 -0.33094 0.9129649999999999 0.189477 -0.30905900000000003 -0.27073200000000003 0.041178 -0.445179 0.110695 0.264932 -0.082649 -0.687062 -0.113837 -0.08771699999999999 -0.5499390000000001 0.28868 -0.31616500000000003 -0.169434 -0.276328 -0.002484 0.503571 0.017159999999999998 -0.697246 0.345636 0.217167 -0.269355 0.15806199999999998 -0.855341 0.122431 -0.22720700000000002 0.188944 -0.421183 0.08663 0.21528000000000003 0.283848 0.366452 -0.046508 -0.9517639999999999 0.309189 -0.735437 -0.045422000000000004 -0.887677 0.194247 -0.265882 -0.584287 0.204665 -0.456867 -0.306731 0.402656 0.18248499999999998 -0.482688
社会 0.25285599999999997 -0.9012049999999999 0.562623 0.42190500000000003 -0.227404 0.24224 -0.042137 0.11339300000000001 0.248952 0.133324 -0.162098 -0.37860900000000003 -0.011344 -0.12065799999999999 0.7320409999999999 0.436566 -0.619392 -0.808188 -0.529003 0.170466 -0.56802 -0.044660000000000005 -0.09905599999999999 0.653094 -0.6823859999999999 0.044237 0.47577200000000003 -0.680855 -0.26310900000000004 0.419278 -0.009666 0.528913 0.038962000000000004 0.132412 -0.174759 0.449503 -0.305858 -0.593197 -0.05944 0.263361 -0.229095 0.950509 -0.402294 -0.485858 0.220259 -0.077571 0.46271899999999994 -0.7173649999999999 0.272312 -0.12344400000000001 -0.47397100000000003 -0.23772100000000002 -0.35388200000000003 0.056878 -0.355072 0.596975 0.096513 0.558193 -0.425221 -0.021966 0.19025 -1.036349 -0.793575 0.7005100000000001 0.175567 0.321221 -0.251456 0.199455 -0.434032 -0.456467 0.059221 0.6404569999999999 0.462638 -0.375855 0.154028 0.093054 0.034841000000000004 0.8749879999999999 -0.5512020000000001 -0.16106199999999998 0.443669 -0.374104 -0.38919899999999996 1.2755940000000001 0.28187399999999996 0.058741999999999996 -0.49518100000000004 -0.507278 0.507907 0.064523 -0.44426000000000004 0.437849 0.223652 -0.068414 -0.282695 0.002463 0.263757 0.34113000000000004 -0.030223000000000003
毛主席 0.198491 -1.0460770000000001 0.829569 -0.281908 -0.556854 -0.554539 -0.5252060000000001 -0.211598 -0.006183 -0.45739399999999997 -0.11188900000000002 -0.535471 -0.35028899999999996 0.088261 0.47534 0.31632 0.219606 -0.165003 0.359734 0.7961060000000001 0.37759299999999996 -0.68013 0.5240859999999999 -0.11398900000000001 -0.585432 -0.494465 -0.117493 -0.44687299999999996 1.109501 -0.787519 -0.20496 -0.074411 0.445974 -0.10986199999999999 -0.521555 0.595247 0.063223 0.490659 0.22147199999999997 0.27410999999999996 0.9447770000000001 0.35536799999999996 0.245115 0.16078599999999998 0.40963900000000003 -0.240112 0.044114999999999994 -0.076293 -0.878049 -0.63615 -0.106977 0.465792 0.23858800000000002 -0.218575 0.351627 0.038689 0.192117 -0.504156 -0.065853 -1.046772 -0.390123 -0.16892100000000002 -0.48030500000000004 -0.44597600000000004 0.324536 -0.173812 -0.546797 1.022245 0.233803 -0.428559 0.057930999999999996 0.5118689999999999 0.127166 0.299781 0.31454899999999997 0.09313099999999999 0.173536 -0.642784 -0.17538299999999998 -0.23854299999999998 0.46697299999999997 0.035568 0.5174489999999999 -0.421519 0.33574299999999996 -0.5202720000000001 -0.628566 -1.3001209999999999 -0.24637399999999998 -1.765796 -0.47943800000000003 0.143164 -0.564005 0.050098000000000004 -0.350633 -0.41721800000000003 -0.131407 0.9596100000000001 -0.525076
举行 0.423307 0.19412000000000001 -0.44782799999999995 0.35031999999999996 0.270592 0.008564 0.270313 0.5558770000000001 0.269646 0.329516 -1.261118 0.045333 0.263536 0.645517 0.369442 0.9500379999999999 -0.29593200000000003 -0.6356510000000001 0.004429 -0.7133550000000001 0.45176099999999997 -0.551717 -0.219308 -0.312379 -0.026549 -0.18168499999999999 -0.25555700000000003 -0.770933 1.124642 1.02495 1.171837 -0.0047079999999999995 0.10512200000000001 -0.458298 -0.7361300000000001 -0.372211 -0.8432290000000001 0.9391149999999999 0.369669 -0.700341 0.509422 0.265369 -0.292431 -0.8223030000000001 0.007807 0.382777 -0.4531 0.235593 -0.372277 -0.526456 -0.38756799999999997 -0.147515 -0.163946 -0.203599 0.197326 -0.298834 -0.18477000000000002 -0.424069 0.553971 0.025244 0.37686 0.5354220000000001 -0.47752 0.287629 0.170058 -0.44241899999999995 0.33920900000000004 0.286906 0.036056 -0.06832300000000001 -0.35582199999999997 0.14433900000000002 0.141147 -0.39778800000000003 0.816331 -0.052578999999999994 -1.452217 0.36835500000000004 -0.260847 -0.257483 0.544792 0.251985 0.30895500000000004 0.010062 0.7993600000000001 0.013500999999999999 -0.47682700000000006 -0.7573 -0.046091 0.339521 0.9345100000000001 0.159607 0.116595 -0.572971 0.365186 0.242023 -0.203913 -0.277406 -0.194801
中华人民共和国 1.461108 -0.12383699999999999 0.613504 0.16158499999999998 0.309261 0.844116 -0.272256 -0.019548 -0.215119 0.314798 -0.196736 -0.435428 0.761684 0.031674 0.5647220000000001 0.387255 -0.406453 -0.190113 0.9567459999999999 -0.560064 -0.11853 -0.370642 0.429972 1.1923620000000001 -0.445406 0.377873 -0.693667 -0.628979 1.36274 0.320318 0.740647 -0.014154 0.337404 0.136463 -0.492295 1.221892 0.5295479999999999 0.152449 0.197207 -0.244783 0.48539899999999997 0.330444 0.664143 -0.32161300000000004 0.09120199999999999 -0.569181 -0.585553 0.100445 -0.773816 -1.216327 0.13850099999999999 0.149074 0.8484950000000001 0.45898599999999995 0.380011 0.5743550000000001 -0.214507 -0.769552 0.118395 -0.660464 0.777469 -0.139695 -0.772428 0.580541 0.8342639999999999 0.32656799999999997 -0.994366 0.06460700000000001 0.052683 0.203652 -0.049011 0.46158000000000005 0.41098900000000005 0.053783000000000004 -0.199949 0.8029430000000001 -0.148226 0.5429 -0.392829 0.001253 0.333809 0.47640200000000005 0.041134 0.09260700000000001 -0.398154 -0.28463299999999997 -0.12303900000000001 0.36922 0.292716 -0.91927 0.330121 -0.6764760000000001 -0.808045 -0.08979 0.172425 0.16303900000000002 0.139755 0.335456 -0.039546
还 0.297955 -0.239792 -0.068442 0.21181599999999998 -0.505776 0.605495 -0.950401 1.1640780000000002 0.669039 0.21064899999999998 -0.449063 -0.354508 0.042059 0.364798 -0.479067 0.1453 -0.099244 -0.160248 0.0673 -0.354097 0.26591 0.028252999999999997 -0.049216 0.739857 -0.29075300000000004 0.450096 0.894016 -0.242667 0.34166399999999997 -0.467559 -0.117126 0.197195 0.602725 0.15021199999999998 0.208184 -0.064747 0.272121 0.238781 -0.06165 0.374191 -0.071494 0.172382 -0.861009 0.10151 -0.11067 -0.124865 -0.164364 0.314517 -0.049935 0.18228 -0.372554 0.632252 -0.117799 0.24101799999999998 -0.11439500000000001 -0.213918 0.7901100000000001 0.237225 0.128498 -0.12478199999999999 -0.268715 -0.13730599999999998 -0.5246430000000001 0.114271 0.821125 0.088321 -0.094345 0.858101 0.034821 -0.46429899999999996 -0.7269760000000001 -0.516066 -0.09561900000000001 0.12853399999999998 -0.383898 0.10631199999999999 -0.117309 0.200272 -0.078592 -0.141025 -0.027986 0.41342299999999993 -0.062776 -0.5456840000000001 -0.19250699999999998 -1.205064 -0.171694 -0.67191 0.252317 -0.02888 0.470578 -0.237948 -0.28544899999999995 0.045663 0.47292799999999996 0.082676 0.319056 0.11651500000000001 0.0035409999999999994
